{"learner":{"attributes":{"best_iteration":"1499","best_ntree_limit":"1500","scikit_learn":"{\"n_estimators\": 1500, \"objective\": \"reg:squarederror\", \"max_depth\": 6, \"learning_rate\": null, \"verbosity\": null, \"booster\": null, \"tree_method\": \"gpu_hist\", \"gamma\": 0.001, \"min_child_weight\": 5, \"max_delta_step\": null, \"subsample\": 1, \"colsample_bytree\": 0.75, \"colsample_bylevel\": null, \"colsample_bynode\": null, \"reg_alpha\": null, \"reg_lambda\": null, \"scale_pos_weight\": null, \"base_score\": null, \"missing\": NaN, \"num_parallel_tree\": null, \"random_state\": null, \"n_jobs\": null, \"monotone_constraints\": null, \"interaction_constraints\": null, \"importance_type\": null, \"gpu_id\": null, \"validate_parameters\": null, \"predictor\": null, \"enable_categorical\": false, \"kwargs\": {\"lambda\": 1, \"eta\": 0.1, \"alpha\": 0.25}, \"_estimator_type\": \"regressor\"}"},"feature_names":["EMOTION_P","EMOTION_A","EMOTION_D"],"feature_types":["float","float","float"],"gradient_booster":{"model":{"gbtree_model_param":{"num_trees":"1500","size_leaf_vector":"0"},"tree_info":[0,0,0,0,0,0,0,0,0,0,0,0,0,0,0,0,0,0,0,0,0,0,0,0,0,0,0,0,0,0,0,0,0,0,0,0,0,0,0,0,0,0,0,0,0,0,0,0,0,0,0,0,0,0,0,0,0,0,0,0,0,0,0,0,0,0,0,0,0,0,0,0,0,0,0,0,0,0,0,0,0,0,0,0,0,0,0,0,0,0,0,0,0,0,0,0,0,0,0,0,0,0,0,0,0,0,0,0,0,0,0,0,0,0,0,0,0,0,0,0,0,0,0,0,0,0,0,0,0,0,0,0,0,0,0,0,0,0,0,0,0,0,0,0,0,0,0,0,0,0,0,0,0,0,0,0,0,0,0,0,0,0,0,0,0,0,0,0,0,0,0,0,0,0,0,0,0,0,0,0,0,0,0,0,0,0,0,0,0,0,0,0,0,0,0,0,0,0,0,0,0,0,0,0,0,0,0,0,0,0,0,0,0,0,0,0,0,0,0,0,0,0,0,0,0,0,0,0,0,0,0,0,0,0,0,0,0,0,0,0,0,0,0,0,0,0,0,0,0,0,0,0,0,0,0,0,0,0,0,0,0,0,0,0,0,0,0,0,0,0,0,0,0,0,0,0,0,0,0,0,0,0,0,0,0,0,0,0,0,0,0,0,0,0,0,0,0,0,0,0,0,0,0,0,0,0,0,0,0,0,0,0,0,0,0,0,0,0,0,0,0,0,0,0,0,0,0,0,0,0,0,0,0,0,0,0,0,0,0,0,0,0,0,0,0,0,0,0,0,0,0,0,0,0,0,0,0,0,0,0,0,0,0,0,0,0,0,0,0,0,0,0,0,0,0,0,0,0,0,0,0,0,0,0,0,0,0,0,0,0,0,0,0,0,0,0,0,0,0,0,0,0,0,0,0,0,0,0,0,0,0,0,0,0,0,0,0,0,0,0,0,0,0,0,0,0,0,0,0,0,0,0,0,0,0,0,0,0,0,0,0,0,0,0,0,0,0,0,0,0,0,0,0,0,0,0,0,0,0,0,0,0,0,0,0,0,0,0,0,0,0,0,0,0,0,0,0,0,0,0,0,0,0,0,0,0,0,0,0,0,0,0,0,0,0,0,0,0,0,0,0,0,0,0,0,0,0,0,0,0,0,0,0,0,0,0,0,0,0,0,0,0,0,0,0,0,0,0,0,0,0,0,0,0,0,0,0,0,0,0,0,0,0,0,0,0,0,0,0,0,0,0,0,0,0,0,0,0,0,0,0,0,0,0,0,0,0,0,0,0,0,0,0,0,0,0,0,0,0,0,0,0,0,0,0,0,0,0,0,0,0,0,0,0,0,0,0,0,0,0,0,0,0,0,0,0,0,0,0,0,0,0,0,0,0,0,0,0,0,0,0,0,0,0,0,0,0,0,0,0,0,0,0,0,0,0,0,0,0,0,0,0,0,0,0,0,0,0,0,0,0,0,0,0,0,0,0,0,0,0,0,0,0,0,0,0,0,0,0,0,0,0,0,0,0,0,0,0,0,0,0,0,0,0,0,0,0,0,0,0,0,0,0,0,0,0,0,0,0,0,0,0,0,0,0,0,0,0,0,0,0,0,0,0,0,0,0,0,0,0,0,0,0,0,0,0,0,0,0,0,0,0,0,0,0,0,0,0,0,0,0,0,0,0,0,0,0,0,0,0,0,0,0,0,0,0,0,0,0,0,0,0,0,0,0,0,0,0,0,0,0,0,0,0,0,0,0,0,0,0,0,0,0,0,0,0,0,0,0,0,0,0,0,0,0,0,0,0,0,0,0,0,0,0,0,0,0,0,0,0,0,0,0,0,0,0,0,0,0,0,0,0,0,0,0,0,0,0,0,0,0,0,0,0,0,0,0,0,0,0,0,0,0,0,0,0,0,0,0,0,0,0,0,0,0,0,0,0,0,0,0,0,0,0,0,0,0,0,0,0,0,0,0,0,0,0,0,0,0,0,0,0,0,0,0,0,0,0,0,0,0,0,0,0,0,0,0,0,0,0,0,0,0,0,0,0,0,0,0,0,0,0,0,0,0,0,0,0,0,0,0,0,0,0,0,0,0,0,0,0,0,0,0,0,0,0,0,0,0,0,0,0,0,0,0,0,0,0,0,0,0,0,0,0,0,0,0,0,0,0,0,0,0,0,0,0,0,0,0,0,0,0,0,0,0,0,0,0,0,0,0,0,0,0,0,0,0,0,0,0,0,0,0,0,0,0,0,0,0,0,0,0,0,0,0,0,0,0,0,0,0,0,0,0,0,0,0,0,0,0,0,0,0,0,0,0,0,0,0,0,0,0,0,0,0,0,0,0,0,0,0,0,0,0,0,0,0,0,0,0,0,0,0,0,0,0,0,0,0,0,0,0,0,0,0,0,0,0,0,0,0,0,0,0,0,0,0,0,0,0,0,0,0,0,0,0,0,0,0,0,0,0,0,0,0,0,0,0,0,0,0,0,0,0,0,0,0,0,0,0,0,0,0,0,0,0,0,0,0,0,0,0,0,0,0,0,0,0,0,0,0,0,0,0,0,0,0,0,0,0,0,0,0,0,0,0,0,0,0,0,0,0,0,0,0,0,0,0,0,0,0,0,0,0,0,0,0,0,0,0,0,0,0,0,0,0,0,0,0,0,0,0,0,0,0,0,0,0,0,0,0,0,0,0,0,0,0,0,0,0,0,0,0,0,0,0,0,0,0,0,0,0,0,0,0,0,0,0,0,0,0,0,0,0,0,0,0,0,0,0,0,0,0,0,0,0,0,0,0,0,0,0,0,0,0,0,0,0,0,0,0,0,0,0,0,0,0,0,0,0,0,0,0,0,0,0,0,0,0,0,0,0,0,0,0,0,0,0,0,0,0,0,0,0,0,0,0,0,0,0,0,0,0,0,0,0,0,0,0,0,0,0,0,0,0,0,0,0,0,0,0,0,0,0,0,0,0,0,0,0,0,0,0,0,0,0,0,0,0,0,0,0,0,0,0,0,0,0,0,0,0,0,0,0,0,0,0,0,0,0,0,0,0,0,0,0,0,0,0,0,0,0,0,0,0,0,0,0,0,0,0,0,0,0,0,0,0,0,0,0,0,0,0,0,0,0,0,0,0,0,0,0,0,0,0,0,0,0,0,0,0,0,0,0,0,0,0,0,0,0,0,0,0,0,0,0,0,0,0,0,0,0,0,0,0,0,0,0,0,0,0,0,0,0,0,0,0,0,0,0,0,0,0,0,0,0,0,0,0,0,0,0,0,0,0,0,0,0,0,0,0,0,0,0,0,0,0,0,0,0,0,0,0,0,0,0,0,0,0,0,0,0,0,0,0,0,0,0,0,0,0,0,0,0,0,0,0,0,0,0],"trees":[{"base_weights":[-1.3273598E-1,-1.6471572E-1,-6.254561E-2,-1.6177228E-1,-1.9691033E-2,-8.510993E-2,6.6260765E-3,-1.6593188E-2,-1.4822069E-2,-4.863709E-3,-9.1974735E-2,5.637855E-3,-3.7668676E-3,-6.976274E-3,-9.778704E-3],"categories":[],"categories_nodes":[],"categories_segments":[],"categories_sizes":[],"default_left":[true,false,true,false,false,true,true,false,false,false,true,false,false,false,false],"id":0,"left_children":[1,3,5,7,-1,9,11,-1,-1,-1,13,-1,-1,-1,-1],"loss_changes":[2.1618637E1,5.071411E-1,4.7463217E0,2.4021912E-1,0E0,5.3273964E-1,1.6442046E0,0E0,0E0,0E0,1.9878197E-1,0E0,0E0,0E0,0E0],"parents":[2147483647,0,0,1,1,2,2,3,3,5,5,6,6,10,10],"right_children":[2,4,6,8,-1,10,12,-1,-1,-1,14,-1,-1,-1,-1],"split_conditions":[5E-1,1E-1,7E-1,-3.5E-1,-1.9691033E-2,6E-1,9E-1,-1.6593188E-2,-1.4822069E-2,-4.863709E-3,2E-1,5.637855E-3,-3.7668676E-3,-6.976274E-3,-9.778704E-3],"split_indices":[0,0,0,0,0,0,0,0,0,0,2,0,0,0,0],"split_type":[0,0,0,0,0,0,0,0,0,0,0,0,0,0,0],"sum_hessian":[9.66E3,6.633E3,3.027E3,6.09E3,5.43E2,2.285E3,7.42E2,4.637E3,1.453E3,3.69E2,1.916E3,3.52E2,3.9E2,4.09E2,1.507E3],"tree_param":{"num_deleted":"0","num_feature":"3","num_nodes":"15","size_leaf_vector":"0"}},{"base_weights":[-1.1948264E-1,-1.4825939E-1,-5.631409E-2,-1.4560431E-1,-1.7725537E-2,-7.663025E-2,5.932329E-3,-1.4934227E-1,-1.3340882E-2,-4.3786517E-3,-8.279904E-2,5.0756647E-3,-3.3911446E-3,-1.42408265E-2,-1.530151E-2,-6.2803472E-3,-8.801482E-3],"categories":[],"categories_nodes":[],"categories_segments":[],"categories_sizes":[],"default_left":[true,true,false,true,false,true,true,false,false,false,true,false,false,false,false,false,false],"id":1,"left_children":[1,3,5,7,-1,9,11,13,-1,-1,15,-1,-1,-1,-1,-1,-1],"loss_changes":[1.7502121E1,4.0420532E-1,3.8473654E0,1.8704224E-1,0E0,4.2788506E-1,1.332908E0,2.2468567E-2,0E0,0E0,1.5669632E-1,0E0,0E0,0E0,0E0,0E0,0E0],"parents":[2147483647,0,0,1,1,2,2,3,3,5,5,6,6,7,7,10,10],"right_children":[2,4,6,8,-1,10,12,14,-1,-1,16,-1,-1,-1,-1,-1,-1],"split_conditions":[5E-1,1E-1,7E-1,-3.5E-1,-1.7725537E-2,6E-1,9E-1,-2.5E-1,-1.3340882E-2,-4.3786517E-3,-3E-1,5.0756647E-3,-3.3911446E-3,-1.42408265E-2,-1.530151E-2,-6.2803472E-3,-8.801482E-3],"split_indices":[0,0,0,0,0,0,0,1,0,0,1,0,0,0,0,0,0],"split_type":[0,0,0,0,0,0,0,0,0,0,0,0,0,0,0,0,0],"sum_hessian":[9.66E3,6.633E3,3.027E3,6.09E3,5.43E2,2.285E3,7.42E2,4.637E3,1.453E3,3.69E2,1.916E3,3.52E2,3.9E2,1.643E3,2.994E3,4.09E2,1.507E3],"tree_param":{"num_deleted":"0","num_feature":"3","num_nodes":"17","size_leaf_vector":"0"}},{"base_weights":[-1.0755801E-1,-1.3345389E-1,-5.0705023E-2,-1.3105914E-1,-1.5956244E-2,-6.899762E-2,5.307873E-3,-1.3441982E-2,-1.200771E-2,-3.9419737E-3,-7.454004E-2,4.5695687E-3,-3.0528973E-3,-5.653847E-3,-7.921916E-3],"categories":[],"categories_nodes":[],"categories_segments":[],"categories_sizes":[],"default_left":[false,true,false,true,false,true,true,false,false,false,false,false,false,false,false],"id":2,"left_children":[1,3,5,7,-1,9,11,-1,-1,-1,13,-1,-1,-1,-1],"loss_changes":[1.4170677E1,3.2121277E-1,3.1188421E0,1.4503479E-1,0E0,3.4332275E-1,1.080584E0,0E0,0E0,0E0,1.23054504E-1,0E0,0E0,0E0,0E0],"parents":[2147483647,0,0,1,1,2,2,3,3,5,5,6,6,10,10],"right_children":[2,4,6,8,-1,10,12,-1,-1,-1,14,-1,-1,-1,-1],"split_conditions":[5E-1,1E-1,7E-1,-3.5E-1,-1.5956244E-2,6E-1,9E-1,-1.3441982E-2,-1.200771E-2,-3.9419737E-3,2E-1,4.5695687E-3,-3.0528973E-3,-5.653847E-3,-7.921916E-3],"split_indices":[0,0,0,0,0,0,0,0,0,0,2,0,0,0,0],"split_type":[0,0,0,0,0,0,0,0,0,0,0,0,0,0,0],"sum_hessian":[9.66E3,6.633E3,3.027E3,6.09E3,5.43E2,2.285E3,7.42E2,4.637E3,1.453E3,3.69E2,1.916E3,3.52E2,3.9E2,4.09E2,1.507E3],"tree_param":{"num_deleted":"0","num_feature":"3","num_nodes":"15","size_leaf_vector":"0"}},{"base_weights":[-9.68211E-2,-1.20122276E-1,-4.5656368E-2,-1.17961496E-1,-1.436355E-2,-6.21274E-2,4.7452897E-3,-1.2098072E-1,-1.0807764E-2,-3.5488394E-3,-6.710617E-2,4.1138674E-3,-2.748389E-3,-1.1474228E-2,-1.2428123E-2,-5.0898404E-3,-7.1302513E-3],"categories":[],"categories_nodes":[],"categories_segments":[],"categories_sizes":[],"default_left":[true,true,true,true,false,false,true,true,false,false,false,false,false,false,false,false,false],"id":3,"left_children":[1,3,5,7,-1,9,11,13,-1,-1,15,-1,-1,-1,-1,-1,-1],"loss_changes":[1.14709015E1,2.5471497E-1,2.5283866E0,1.1142731E-1,0E0,2.751608E-1,8.760304E-1,2.1476746E-2,0E0,0E0,9.620285E-2,0E0,0E0,0E0,0E0,0E0,0E0],"parents":[2147483647,0,0,1,1,2,2,3,3,5,5,6,6,7,7,10,10],"right_children":[2,4,6,8,-1,10,12,14,-1,-1,16,-1,-1,-1,-1,-1,-1],"split_conditions":[5E-1,1E-1,7E-1,-3.5E-1,-1.436355E-2,6E-1,9E-1,-2.5E-1,-1.0807764E-2,-3.5488394E-3,-3E-1,4.1138674E-3,-2.748389E-3,-1.1474228E-2,-1.2428123E-2,-5.0898404E-3,-7.1302513E-3],"split_indices":[0,0,0,0,0,0,0,1,0,0,1,0,0,0,0,0,0],"split_type":[0,0,0,0,0,0,0,0,0,0,0,0,0,0,0,0,0],"sum_hessian":[9.66E3,6.633E3,3.027E3,6.09E3,5.43E2,2.285E3,7.42E2,4.637E3,1.453E3,3.69E2,1.916E3,3.52E2,3.9E2,1.643E3,2.994E3,4.09E2,1.507E3],"tree_param":{"num_deleted":"0","num_feature":"3","num_nodes":"17","size_leaf_vector":"0"}},{"base_weights":[-8.716109E-2,-1.0812875E-1,-4.1111983E-2,-1.06179245E-1,-1.2929834E-2,-5.5943415E-2,4.2389757E-3,-1.0889318E-1,-9.727732E-3,-3.1949133E-3,-6.041495E-2,3.7036499E-3,-2.474252E-3,-1.0327502E-2,-1.1185723E-2,-4.5820964E-3,-6.417697E-3],"categories":[],"categories_nodes":[],"categories_segments":[],"categories_sizes":[],"default_left":[false,true,false,true,false,true,true,true,false,false,true,false,false,false,false,false,false],"id":4,"left_children":[1,3,5,7,-1,9,11,13,-1,-1,15,-1,-1,-1,-1,-1,-1],"loss_changes":[9.286354E0,2.0118713E-1,2.0498557E0,8.501434E-2,0E0,2.2024727E-1,7.10227E-1,1.1898041E-2,0E0,0E0,7.48086E-2,0E0,0E0,0E0,0E0,0E0,0E0],"parents":[2147483647,0,0,1,1,2,2,3,3,5,5,6,6,7,7,10,10],"right_children":[2,4,6,8,-1,10,12,14,-1,-1,16,-1,-1,-1,-1,-1,-1],"split_conditions":[5E-1,1E-1,7E-1,-3.5E-1,-1.2929834E-2,6E-1,9E-1,-2.5E-1,-9.727732E-3,-3.1949133E-3,-3E-1,3.7036499E-3,-2.474252E-3,-1.0327502E-2,-1.1185723E-2,-4.5820964E-3,-6.417697E-3],"split_indices":[0,0,0,0,0,0,0,1,0,0,1,0,0,0,0,0,0],"split_type":[0,0,0,0,0,0,0,0,0,0,0,0,0,0,0,0,0],"sum_hessian":[9.66E3,6.633E3,3.027E3,6.09E3,5.43E2,2.285E3,7.42E2,4.637E3,1.453E3,3.69E2,1.916E3,3.52E2,3.9E2,1.643E3,2.994E3,4.09E2,1.507E3],"tree_param":{"num_deleted":"0","num_feature":"3","num_nodes":"17","size_leaf_vector":"0"}},{"base_weights":[-7.846641E-2,-9.733383E-2,-3.7021562E-2,-9.557466E-2,-1.1639229E-2,-5.0377157E-2,3.7831631E-3,-9.80139E-2,-8.755626E-3,-2.876286E-3,-5.4392237E-2,3.3343507E-3,-2.2274598E-3,-9.295385E-3,-1.0067524E-2,-4.125004E-3,-5.776353E-3],"categories":[],"categories_nodes":[],"categories_segments":[],"categories_sizes":[],"default_left":[false,true,false,false,false,true,true,true,false,false,true,false,false,false,false,false,false],"id":5,"left_children":[1,3,5,7,-1,9,11,13,-1,-1,15,-1,-1,-1,-1,-1,-1],"loss_changes":[7.5172997E0,1.583023E-1,1.6620121E0,6.415939E-2,0E0,1.760335E-1,5.758252E-1,4.6920776E-3,0E0,0E0,5.7798862E-2,0E0,0E0,0E0,0E0,0E0,0E0],"parents":[2147483647,0,0,1,1,2,2,3,3,5,5,6,6,7,7,10,10],"right_children":[2,4,6,8,-1,10,12,14,-1,-1,16,-1,-1,-1,-1,-1,-1],"split_conditions":[5E-1,1E-1,7E-1,-3.5E-1,-1.1639229E-2,6E-1,9E-1,-2.5E-1,-8.755626E-3,-2.876286E-3,-3E-1,3.3343507E-3,-2.2274598E-3,-9.295385E-3,-1.0067524E-2,-4.125004E-3,-5.776353E-3],"split_indices":[0,0,0,0,0,0,0,1,0,0,1,0,0,0,0,0,0],"split_type":[0,0,0,0,0,0,0,0,0,0,0,0,0,0,0,0,0],"sum_hessian":[9.66E3,6.633E3,3.027E3,6.09E3,5.43E2,2.285E3,7.42E2,4.637E3,1.453E3,3.69E2,1.916E3,3.52E2,3.9E2,1.643E3,2.994E3,4.09E2,1.507E3],"tree_param":{"num_deleted":"0","num_feature":"3","num_nodes":"17","size_leaf_vector":"0"}},{"base_weights":[-7.064063E-2,-8.7617755E-2,-3.33398E-2,-8.603002E-2,-1.0477445E-2,-4.5366906E-2,3.3725968E-3,-8.822206E-3,-7.880666E-3,-2.589434E-3,-4.897123E-2,3.0018413E-3,-2.005284E-3,-3.713511E-3,-5.1991018E-3],"categories":[],"categories_nodes":[],"categories_segments":[],"categories_sizes":[],"default_left":[true,true,true,true,false,true,true,false,false,false,true,false,false,false,false],"id":6,"left_children":[1,3,5,7,-1,9,11,-1,-1,-1,13,-1,-1,-1,-1],"loss_changes":[6.084774E0,1.2399292E-1,1.3476467E0,4.773712E-2,0E0,1.4045954E-1,4.6686637E-1,0E0,0E0,0E0,4.430628E-2,0E0,0E0,0E0,0E0],"parents":[2147483647,0,0,1,1,2,2,3,3,5,5,6,6,10,10],"right_children":[2,4,6,8,-1,10,12,-1,-1,-1,14,-1,-1,-1,-1],"split_conditions":[5E-1,1E-1,7E-1,-3.5E-1,-1.0477445E-2,6E-1,9E-1,-8.822206E-3,-7.880666E-3,-2.589434E-3,-3E-1,3.0018413E-3,-2.005284E-3,-3.713511E-3,-5.1991018E-3],"split_indices":[0,0,0,0,0,0,0,0,0,0,1,0,0,0,0],"split_type":[0,0,0,0,0,0,0,0,0,0,0,0,0,0,0],"sum_hessian":[9.66E3,6.633E3,3.027E3,6.09E3,5.43E2,2.285E3,7.42E2,4.637E3,1.453E3,3.69E2,1.916E3,3.52E2,3.9E2,4.09E2,1.507E3],"tree_param":{"num_deleted":"0","num_feature":"3","num_nodes":"15","size_leaf_vector":"0"}},{"base_weights":[-6.35934E-2,-7.8867614E-2,-3.0025784E-2,-7.743387E-2,-9.431626E-3,-4.0857118E-2,3.0030902E-3,-7.9401776E-2,-7.0931427E-3,-2.3311905E-3,-4.409179E-2,2.7025205E-3,-1.8052688E-3,-7.484728E-3,-8.179183E-3,-3.343064E-3,-4.679536E-3],"categories":[],"categories_nodes":[],"categories_segments":[],"categories_sizes":[],"default_left":[false,true,false,true,false,true,true,true,false,false,true,false,false,false,false,false,false],"id":7,"left_children":[1,3,5,7,-1,9,11,13,-1,-1,15,-1,-1,-1,-1,-1,-1],"loss_changes":[4.923786E0,9.669876E-2,1.0928433E0,3.472519E-2,0E0,1.1185861E-1,3.785436E-1,5.2051544E-3,0E0,0E0,3.3632994E-2,0E0,0E0,0E0,0E0,0E0,0E0],"parents":[2147483647,0,0,1,1,2,2,3,3,5,5,6,6,7,7,10,10],"right_children":[2,4,6,8,-1,10,12,14,-1,-1,16,-1,-1,-1,-1,-1,-1],"split_conditions":[5E-1,1E-1,7E-1,-3.5E-1,-9.431626E-3,6E-1,9E-1,-2.5E-1,-7.0931427E-3,-2.3311905E-3,-3E-1,2.7025205E-3,-1.8052688E-3,-7.484728E-3,-8.179183E-3,-3.343064E-3,-4.679536E-3],"split_indices":[0,0,0,0,0,0,0,1,0,0,1,0,0,0,0,0,0],"split_type":[0,0,0,0,0,0,0,0,0,0,0,0,0,0,0,0,0],"sum_hessian":[9.66E3,6.633E3,3.027E3,6.09E3,5.43E2,2.285E3,7.42E2,4.637E3,1.453E3,3.69E2,1.916E3,3.52E2,3.9E2,1.643E3,2.994E3,4.09E2,1.507E3],"tree_param":{"num_deleted":"0","num_feature":"3","num_nodes":"17","size_leaf_vector":"0"}},{"base_weights":[-5.72539E-2,-7.0568524E-2,-4.1180838E-2,-6.6681937E-3,-7.7962647E-3,-2.704286E-2,-7.2421557E-3,-8.771905E-3,-3.8108975E-2,-2.3679733E-2,2.4330176E-3,-4.2118933E-3,-2.098702E-3,-3.0095715E-3,-1.6252028E-3],"categories":[],"categories_nodes":[],"categories_segments":[],"categories_sizes":[],"default_left":[true,true,true,false,false,true,false,false,true,true,false,false,false,false,false],"id":8,"left_children":[1,3,5,-1,-1,7,-1,9,11,13,-1,-1,-1,-1,-1],"loss_changes":[2.0366764E0,1.102047E-1,1.9112701E0,0E0,0E0,6.0017204E-1,0E0,5.689027E-1,1.1221123E-1,2.604878E-2,0E0,0E0,0E0,0E0,0E0],"parents":[2147483647,0,0,1,1,2,2,5,5,7,7,8,8,9,9],"right_children":[2,4,6,-1,-1,8,-1,10,12,14,-1,-1,-1,-1,-1],"split_conditions":[1E-1,-2E-1,9E-1,-6.6681937E-3,-7.7962647E-3,2.5E-1,-7.2421557E-3,-1E-1,6E-1,-3E-1,2.4330176E-3,-4.2118933E-3,-2.098702E-3,-3.0095715E-3,-1.6252028E-3],"split_indices":[2,2,2,0,0,1,0,1,1,1,0,0,0,0,0],"split_type":[0,0,0,0,0,0,0,0,0,0,0,0,0,0,0],"sum_hessian":[9.66E3,5.273E3,4.387E3,3.485E3,1.788E3,3.027E3,1.36E3,1.151E3,1.876E3,7.99E2,3.52E2,1.507E3,3.69E2,4.09E2,3.9E2],"tree_param":{"num_deleted":"0","num_feature":"3","num_nodes":"15","size_leaf_vector":"0"}},{"base_weights":[-5.1544584E-2,-6.390813E-2,-2.4357887E-2,-6.001568E-3,-6.811746E-2,-3.314397E-2,2.370706E-3,-6.6116117E-3,-7.712003E-3,-1.8893986E-3,-3.574666E-2,2.19041E-3,-1.4630976E-3,-2.7093496E-3,-3.790982E-3],"categories":[],"categories_nodes":[],"categories_segments":[],"categories_sizes":[],"default_left":[false,true,false,false,true,true,true,false,false,false,true,false,false,false,false],"id":9,"left_children":[1,3,5,-1,7,9,11,-1,-1,-1,13,-1,-1,-1,-1],"loss_changes":[3.223671E0,7.257271E-2,7.188666E-1,0E0,1.5829086E-2,7.044816E-2,2.4888945E-1,0E0,0E0,0E0,1.8604994E-2,0E0,0E0,0E0,0E0],"parents":[2147483647,0,0,1,1,2,2,4,4,5,5,6,6,10,10],"right_children":[2,4,6,-1,8,10,12,-1,-1,-1,14,-1,-1,-1,-1],"split_conditions":[5E-1,-2E-1,7E-1,-6.001568E-3,-3.5E-1,6E-1,9E-1,-6.6116117E-3,-7.712003E-3,-1.8893986E-3,2E-1,2.19041E-3,-1.4630976E-3,-2.7093496E-3,-3.790982E-3],"split_indices":[0,2,0,0,0,0,0,0,0,0,2,0,0,0,0],"split_type":[0,0,0,0,0,0,0,0,0,0,0,0,0,0,0],"sum_hessian":[9.66E3,6.633E3,3.027E3,3.485E3,3.148E3,2.285E3,7.42E2,2.605E3,5.43E2,3.69E2,1.916E3,3.52E2,3.9E2,4.09E2,1.507E3],"tree_param":{"num_deleted":"0","num_feature":"3","num_nodes":"15","size_leaf_vector":"0"}},{"base_weights":[-4.6405964E-2,-5.7198633E-2,-3.336655E-2,-5.401584E-3,-6.322884E-3,-2.1941144E-2,-5.8577983E-3,-7.1086716E-3,-3.0899623E-2,-1.9250395E-2,1.9719903E-3,-3.412136E-3,-1.7009679E-3,-2.439075E-3,-1.3171633E-3],"categories":[],"categories_nodes":[],"categories_segments":[],"categories_sizes":[],"default_left":[false,true,true,false,false,true,false,false,true,true,false,false,false,false,false],"id":10,"left_children":[1,3,5,-1,-1,7,-1,9,11,13,-1,-1,-1,-1,-1],"loss_changes":[1.3350449E0,6.8496704E-2,1.2425523E0,0E0,0E0,3.9262807E-1,0E0,3.755206E-1,7.063222E-2,1.528573E-2,0E0,0E0,0E0,0E0,0E0],"parents":[2147483647,0,0,1,1,2,2,5,5,7,7,8,8,9,9],"right_children":[2,4,6,-1,-1,8,-1,10,12,14,-1,-1,-1,-1,-1],"split_conditions":[1E-1,-2E-1,9E-1,-5.401584E-3,-6.322884E-3,2.5E-1,-5.8577983E-3,-1E-1,6E-1,-3E-1,1.9719903E-3,-3.412136E-3,-1.7009679E-3,-2.439075E-3,-1.3171633E-3],"split_indices":[2,2,2,0,0,1,0,1,1,1,0,0,0,0,0],"split_type":[0,0,0,0,0,0,0,0,0,0,0,0,0,0,0],"sum_hessian":[9.66E3,5.273E3,4.387E3,3.485E3,1.788E3,3.027E3,1.36E3,1.151E3,1.876E3,7.99E2,3.52E2,1.507E3,3.69E2,4.09E2,3.9E2],"tree_param":{"num_deleted":"0","num_feature":"3","num_nodes":"15","size_leaf_vector":"0"}},{"base_weights":[-4.1780844E-2,-5.178532E-2,-1.9765832E-2,-5.0724264E-2,-6.3110935E-3,-2.6894787E-2,1.8580707E-3,-5.2208095E-3,-4.578428E-3,-1.5313311E-3,-2.8985685E-2,1.775342E-3,-1.1857828E-3,-2.195762E-3,-3.0711496E-3],"categories":[],"categories_nodes":[],"categories_segments":[],"categories_sizes":[],"default_left":[true,true,true,true,false,true,true,false,false,false,true,false,false,false,false],"id":11,"left_children":[1,3,5,7,-1,9,11,-1,-1,-1,13,-1,-1,-1,-1],"loss_changes":[2.1089115E0,4.806137E-2,4.7309303E-1,1.7759323E-2,0E0,4.38385E-2,1.6367252E-1,0E0,0E0,0E0,9.4099045E-3,0E0,0E0,0E0,0E0],"parents":[2147483647,0,0,1,1,2,2,3,3,5,5,6,6,10,10],"right_children":[2,4,6,8,-1,10,12,-1,-1,-1,14,-1,-1,-1,-1],"split_conditions":[5E-1,1E-1,7E-1,-3.5E-1,-6.3110935E-3,6E-1,9E-1,-5.2208095E-3,-4.578428E-3,-1.5313311E-3,2E-1,1.775342E-3,-1.1857828E-3,-2.195762E-3,-3.0711496E-3],"split_indices":[0,0,0,0,0,0,0,0,0,0,2,0,0,0,0],"split_type":[0,0,0,0,0,0,0,0,0,0,0,0,0,0,0],"sum_hessian":[9.66E3,6.633E3,3.027E3,6.09E3,5.43E2,2.285E3,7.42E2,4.637E3,1.453E3,3.69E2,1.916E3,3.52E2,3.9E2,4.09E2,1.507E3],"tree_param":{"num_deleted":"0","num_feature":"3","num_nodes":"15","size_leaf_vector":"0"}},{"base_weights":[-3.7618004E-2,-4.661675E-2,-1.78078E-2,-4.5657545E-2,-5.681145E-3,-2.4230147E-2,1.6394246E-3,-4.698841E-3,-4.1208984E-3,-1.3786115E-3,-2.6102895E-2,1.5983146E-3,-1.0675085E-3,-1.9767198E-3,-2.7642376E-3],"categories":[],"categories_nodes":[],"categories_segments":[],"categories_sizes":[],"default_left":[false,true,false,true,false,false,true,false,false,false,false,false,false,false,false],"id":12,"left_children":[1,3,5,7,-1,9,11,-1,-1,-1,13,-1,-1,-1,-1],"loss_changes":[1.7053013E0,3.66621E-2,3.8387495E-1,1.2075424E-2,0E0,3.437996E-2,1.3273813E-1,0E0,0E0,0E0,6.299019E-3,0E0,0E0,0E0,0E0],"parents":[2147483647,0,0,1,1,2,2,3,3,5,5,6,6,10,10],"right_children":[2,4,6,8,-1,10,12,-1,-1,-1,14,-1,-1,-1,-1],"split_conditions":[5E-1,1E-1,7E-1,-3.5E-1,-5.681145E-3,6E-1,9E-1,-4.698841E-3,-4.1208984E-3,-1.3786115E-3,2E-1,1.5983146E-3,-1.0675085E-3,-1.9767198E-3,-2.7642376E-3],"split_indices":[0,0,0,0,0,0,0,0,0,0,2,0,0,0,0],"split_type":[0,0,0,0,0,0,0,0,0,0,0,0,0,0,0],"sum_hessian":[9.66E3,6.633E3,3.027E3,6.09E3,5.43E2,2.285E3,7.42E2,4.637E3,1.453E3,3.69E2,1.916E3,3.52E2,3.9E2,4.09E2,1.507E3],"tree_param":{"num_deleted":"0","num_feature":"3","num_nodes":"15","size_leaf_vector":"0"}},{"base_weights":[-3.3871226E-2,-4.169078E-2,-2.4408096E-2,-3.920765E-3,-4.63663E-3,-1.604538E-2,-4.281214E-3,-5.1859803E-3,-2.2568546E-2,-1.4129618E-2,1.4389365E-3,-2.4879982E-3,-1.2411211E-3,-1.7795289E-3,-9.610297E-4],"categories":[],"categories_nodes":[],"categories_segments":[],"categories_sizes":[],"default_left":[true,true,true,false,false,true,false,false,false,true,false,false,false,false,false],"id":13,"left_children":[1,3,5,-1,-1,7,-1,9,11,13,-1,-1,-1,-1,-1],"loss_changes":[6.973467E-1,3.801918E-2,6.5994596E-1,0E0,0E0,2.074408E-1,0E0,2.0182456E-1,3.4436703E-2,6.2306672E-3,0E0,0E0,0E0,0E0,0E0],"parents":[2147483647,0,0,1,1,2,2,5,5,7,7,8,8,9,9],"right_children":[2,4,6,-1,-1,8,-1,10,12,14,-1,-1,-1,-1,-1],"split_conditions":[1E-1,-2E-1,9E-1,-3.920765E-3,-4.63663E-3,2.5E-1,-4.281214E-3,-1E-1,6E-1,-3E-1,1.4389365E-3,-2.4879982E-3,-1.2411211E-3,-1.7795289E-3,-9.610297E-4],"split_indices":[2,2,2,0,0,1,0,1,1,1,0,0,0,0,0],"split_type":[0,0,0,0,0,0,0,0,0,0,0,0,0,0,0],"sum_hessian":[9.66E3,5.273E3,4.387E3,3.485E3,1.788E3,3.027E3,1.36E3,1.151E3,1.876E3,7.99E2,3.52E2,1.507E3,3.69E2,4.09E2,3.9E2],"tree_param":{"num_deleted":"0","num_feature":"3","num_nodes":"15","size_leaf_vector":"0"}},{"base_weights":[-3.0498894E-2,-3.7777796E-2,-1.445902E-2,-3.6950424E-2,-4.651267E-3,-1.9672805E-2,1.2653051E-3,-3.8072807E-3,-3.3172865E-3,-1.1173451E-3,-2.117259E-2,1.2954514E-3,-8.6517184E-4,-1.6020101E-3,-2.2393644E-3],"categories":[],"categories_nodes":[],"categories_segments":[],"categories_sizes":[],"default_left":[true,false,true,true,false,true,true,false,false,false,true,false,false,false,false],"id":14,"left_children":[1,3,5,7,-1,9,11,-1,-1,-1,13,-1,-1,-1,-1],"loss_changes":[1.1143417E0,2.5360107E-2,2.528721E-1,6.7510605E-3,0E0,2.0817041E-2,8.731795E-2,0E0,0E0,0E0,2.0985603E-3,0E0,0E0,0E0,0E0],"parents":[2147483647,0,0,1,1,2,2,3,3,5,5,6,6,10,10],"right_children":[2,4,6,8,-1,10,12,-1,-1,-1,14,-1,-1,-1,-1],"split_conditions":[5E-1,1E-1,7E-1,-3.5E-1,-4.651267E-3,6E-1,9E-1,-3.8072807E-3,-3.3172865E-3,-1.1173451E-3,2E-1,1.2954514E-3,-8.6517184E-4,-1.6020101E-3,-2.2393644E-3],"split_indices":[0,0,0,0,0,0,0,0,0,0,2,0,0,0,0],"split_type":[0,0,0,0,0,0,0,0,0,0,0,0,0,0,0],"sum_hessian":[9.66E3,6.633E3,3.027E3,6.09E3,5.43E2,2.285E3,7.42E2,4.637E3,1.453E3,3.69E2,1.916E3,3.52E2,3.9E2,4.09E2,1.507E3],"tree_param":{"num_deleted":"0","num_feature":"3","num_nodes":"15","size_leaf_vector":"0"}},{"base_weights":[-2.7463628E-2,-3.400933E-2,-1.30311195E-2,-3.3260655E-2,-4.186991E-3,-1.7729556E-2,1.1057026E-3,-3.4266354E-3,-2.9857848E-3,-1.0059124E-3,-1.9070366E-3,1.1662737E-3,-7.7887706E-4],"categories":[],"categories_nodes":[],"categories_segments":[],"categories_sizes":[],"default_left":[true,true,true,true,false,false,true,false,false,false,false,false,false],"id":15,"left_children":[1,3,5,7,-1,9,11,-1,-1,-1,-1,-1,-1],"loss_changes":[9.004793E-1,1.8866539E-2,2.0529824E-1,3.7903786E-3,0E0,1.6036391E-2,7.082648E-2,0E0,0E0,0E0,0E0,0E0,0E0],"parents":[2147483647,0,0,1,1,2,2,3,3,5,5,6,6],"right_children":[2,4,6,8,-1,10,12,-1,-1,-1,-1,-1,-1],"split_conditions":[5E-1,1E-1,7E-1,-3.5E-1,-4.186991E-3,6E-1,9E-1,-3.4266354E-3,-2.9857848E-3,-1.0059124E-3,-1.9070366E-3,1.1662737E-3,-7.7887706E-4],"split_indices":[0,0,0,0,0,0,0,0,0,0,0,0,0],"split_type":[0,0,0,0,0,0,0,0,0,0,0,0,0],"sum_hessian":[9.66E3,6.633E3,3.027E3,6.09E3,5.43E2,2.285E3,7.42E2,4.637E3,1.453E3,3.69E2,1.916E3,3.52E2,3.9E2],"tree_param":{"num_deleted":"0","num_feature":"3","num_nodes":"13","size_leaf_vector":"0"}},{"base_weights":[-2.4728967E-2,-3.0617526E-2,-1.1737083E-2,-2.9939743E-2,-3.7690622E-3,-1.5968798E-2,9.620273E-4,-3.0840447E-3,-2.6874128E-3,-9.0559246E-4,-1.7164309E-2,1.0499804E-3,-7.011879E-4,-1.2519585E-3,-1.8249967E-3],"categories":[],"categories_nodes":[],"categories_segments":[],"categories_sizes":[],"default_left":[false,true,false,true,false,true,true,false,false,false,true,false,false,false,false],"id":16,"left_children":[1,3,5,7,-1,9,11,-1,-1,-1,13,-1,-1,-1,-1],"loss_changes":[7.281523E-1,1.3767719E-2,1.6648883E-1,1.5611649E-3,0E0,1.2181938E-2,5.7453237E-2,0E0,0E0,0E0,1.7457604E-3,0E0,0E0,0E0,0E0],"parents":[2147483647,0,0,1,1,2,2,3,3,5,5,6,6,10,10],"right_children":[2,4,6,8,-1,10,12,-1,-1,-1,14,-1,-1,-1,-1],"split_conditions":[5E-1,1E-1,7E-1,-3.5E-1,-3.7690622E-3,6E-1,9E-1,-3.0840447E-3,-2.6874128E-3,-9.0559246E-4,-3E-1,1.0499804E-3,-7.011879E-4,-1.2519585E-3,-1.8249967E-3],"split_indices":[0,0,0,0,0,0,0,0,0,0,1,0,0,0,0],"split_type":[0,0,0,0,0,0,0,0,0,0,0,0,0,0,0],"sum_hessian":[9.66E3,6.633E3,3.027E3,6.09E3,5.43E2,2.285E3,7.42E2,4.637E3,1.453E3,3.69E2,1.916E3,3.52E2,3.9E2,4.09E2,1.507E3],"tree_param":{"num_deleted":"0","num_feature":"3","num_nodes":"15","size_leaf_vector":"0"}},{"base_weights":[-2.2270376E-2,-2.7342081E-2,-1.6112572E-2,-2.5526313E-3,-3.0725214E-3,-1.05810845E-2,-2.822369E-3,-3.2572325E-3,-1.4937236E-2,-9.1739476E-4,9.452765E-4,-1.6426173E-3,-8.1527664E-4],"categories":[],"categories_nodes":[],"categories_segments":[],"categories_sizes":[],"default_left":[false,true,true,false,false,true,false,false,false,false,false,false,false],"id":17,"left_children":[1,3,5,-1,-1,7,-1,9,11,-1,-1,-1,-1],"loss_changes":[2.9041433E-1,1.7550945E-2,2.8396308E-1,0E0,0E0,9.200746E-2,0E0,8.664906E-2,1.268214E-2,0E0,0E0,0E0,0E0],"parents":[2147483647,0,0,1,1,2,2,5,5,7,7,8,8],"right_children":[2,4,6,-1,-1,8,-1,10,12,-1,-1,-1,-1],"split_conditions":[1E-1,-2E-1,9E-1,-2.5526313E-3,-3.0725214E-3,2.5E-1,-2.822369E-3,-1E-1,6E-1,-9.1739476E-4,9.452765E-4,-1.6426173E-3,-8.1527664E-4],"split_indices":[2,2,2,0,0,1,0,1,1,0,0,0,0],"split_type":[0,0,0,0,0,0,0,0,0,0,0,0,0],"sum_hessian":[9.66E3,5.273E3,4.387E3,3.485E3,1.788E3,3.027E3,1.36E3,1.151E3,1.876E3,7.99E2,3.52E2,1.507E3,3.69E2],"tree_param":{"num_deleted":"0","num_feature":"3","num_nodes":"13","size_leaf_vector":"0"}},{"base_weights":[-2.0054815E-2,-2.4817089E-2,-9.532036E-3,-2.423212E-3,-3.0861616E-3,-1.3016927E-2,8.663364E-4,-7.339701E-4,-1.3975486E-3,8.5101434E-4,-5.397424E-4],"categories":[],"categories_nodes":[],"categories_segments":[],"categories_sizes":[],"default_left":[true,false,true,false,false,true,true,false,false,false,false],"id":18,"left_children":[1,3,5,-1,-1,7,9,-1,-1,-1,-1],"loss_changes":[4.7531128E-1,8.935928E-3,1.1277515E-1,0E0,0E0,7.00891E-3,3.6398195E-2,0E0,0E0,0E0,0E0],"parents":[2147483647,0,0,1,1,2,2,5,5,6,6],"right_children":[2,4,6,-1,-1,8,10,-1,-1,-1,-1],"split_conditions":[5E-1,1E-1,7E-1,-2.423212E-3,-3.0861616E-3,6E-1,9E-1,-7.339701E-4,-1.3975486E-3,8.5101434E-4,-5.397424E-4],"split_indices":[0,0,0,0,0,0,0,0,0,0,0],"split_type":[0,0,0,0,0,0,0,0,0,0,0],"sum_hessian":[9.66E3,6.633E3,3.027E3,6.09E3,5.43E2,2.285E3,7.42E2,3.69E2,1.916E3,3.52E2,3.9E2],"tree_param":{"num_deleted":"0","num_feature":"3","num_nodes":"11","size_leaf_vector":"0"}},{"base_weights":[-1.8057846E-2,-2.2339964E-2,-8.587689E-3,-2.0551885E-2,-2.4232918E-3,-1.1727101E-2,7.4647414E-4,-2.5668738E-3,-1.982017E-3,-6.607712E-4,-1.2578665E-3,7.6615316E-4,-4.859055E-4],"categories":[],"categories_nodes":[],"categories_segments":[],"categories_sizes":[],"default_left":[false,true,false,true,false,true,true,false,false,false,false,false,false],"id":19,"left_children":[1,3,5,7,-1,9,11,-1,-1,-1,-1,-1,-1],"loss_changes":[3.8385248E-1,1.0760069E-2,9.148577E-2,1.1709929E-3,0E0,5.0860643E-3,2.9538427E-2,0E0,0E0,0E0,0E0,0E0,0E0],"parents":[2147483647,0,0,1,1,2,2,3,3,5,5,6,6],"right_children":[2,4,6,8,-1,10,12,-1,-1,-1,-1,-1,-1],"split_conditions":[5E-1,-2E-1,7E-1,-6E-1,-2.4232918E-3,6E-1,9E-1,-2.5668738E-3,-1.982017E-3,-6.607712E-4,-1.2578665E-3,7.6615316E-4,-4.859055E-4],"split_indices":[0,2,0,0,0,0,0,0,0,0,0,0,0],"split_type":[0,0,0,0,0,0,0,0,0,0,0,0,0],"sum_hessian":[9.66E3,6.633E3,3.027E3,3.485E3,3.148E3,2.285E3,7.42E2,3.89E2,3.096E3,3.69E2,1.916E3,3.52E2,3.9E2],"tree_param":{"num_deleted":"0","num_feature":"3","num_nodes":"13","size_leaf_vector":"0"}},{"base_weights":[-1.626331E-2,-1.9948289E-2,-1.1773604E-2,-1.8505186E-3,-2.2609388E-3,-7.7377204E-3,-2.056044E-3,-2.1139358E-3,-1.1051978E-2,-6.400104E-4,6.8975333E-4,-1.2130992E-3,-5.948721E-4],"categories":[],"categories_nodes":[],"categories_segments":[],"categories_sizes":[],"default_left":[true,true,true,false,false,true,false,false,true,false,false,false,false],"id":20,"left_children":[1,3,5,-1,-1,7,-1,9,11,-1,-1,-1,-1],"loss_changes":[1.516707E-1,9.5562935E-3,1.4837646E-1,0E0,0E0,5.3123042E-2,0E0,4.441541E-2,5.743593E-3,0E0,0E0,0E0,0E0],"parents":[2147483647,0,0,1,1,2,2,5,5,7,7,8,8],"right_children":[2,4,6,-1,-1,8,-1,10,12,-1,-1,-1,-1],"split_conditions":[1E-1,-2E-1,9E-1,-1.8505186E-3,-2.2609388E-3,2.5E-1,-2.056044E-3,-1E-1,6E-1,-6.400104E-4,6.8975333E-4,-1.2130992E-3,-5.948721E-4],"split_indices":[2,2,2,0,0,1,0,1,1,0,0,0,0],"split_type":[0,0,0,0,0,0,0,0,0,0,0,0,0],"sum_hessian":[9.66E3,5.273E3,4.387E3,3.485E3,1.788E3,3.027E3,1.36E3,1.151E3,1.876E3,7.99E2,3.52E2,1.507E3,3.69E2],"tree_param":{"num_deleted":"0","num_feature":"3","num_nodes":"13","size_leaf_vector":"0"}},{"base_weights":[-1.464815E-2,-1.8111575E-2,-6.9727814E-3,-1.7621539E-3,-2.3105491E-3,-9.55592E-3,6.4771186E-4,-5.3554465E-4,-1.0231256E-3,6.209741E-4,-3.7360322E-4],"categories":[],"categories_nodes":[],"categories_segments":[],"categories_sizes":[],"default_left":[true,true,true,false,false,true,true,false,false,false,false],"id":21,"left_children":[1,3,5,-1,-1,7,9,-1,-1,-1,-1],"loss_changes":[2.5042152E-1,5.645752E-3,6.1838776E-2,0E0,0E0,2.5333166E-3,1.8757833E-2,0E0,0E0,0E0,0E0],"parents":[2147483647,0,0,1,1,2,2,5,5,6,6],"right_children":[2,4,6,-1,-1,8,10,-1,-1,-1,-1],"split_conditions":[5E-1,1E-1,7E-1,-1.7621539E-3,-2.3105491E-3,6E-1,9E-1,-5.3554465E-4,-1.0231256E-3,6.209741E-4,-3.7360322E-4],"split_indices":[0,0,0,0,0,0,0,0,0,0,0],"split_type":[0,0,0,0,0,0,0,0,0,0,0],"sum_hessian":[9.66E3,6.633E3,3.027E3,6.09E3,5.43E2,2.285E3,7.42E2,3.69E2,1.916E3,3.52E2,3.9E2],"tree_param":{"num_deleted":"0","num_feature":"3","num_nodes":"11","size_leaf_vector":"0"}},{"base_weights":[-1.3191658E-2,-1.6304802E-2,-6.2841983E-3,-1.7005381E-3,-1.3625295E-3,-8.611956E-3,5.4963166E-4,-4.8213443E-4,-9.2086766E-4,5.590539E-4,-3.363386E-4],"categories":[],"categories_nodes":[],"categories_segments":[],"categories_sizes":[],"default_left":[true,true,true,false,false,true,true,false,false,false,false],"id":22,"left_children":[1,3,5,-1,-1,7,9,-1,-1,-1,-1],"loss_changes":[2.0199966E-1,4.5639277E-3,5.0188206E-2,0E0,0E0,1.618892E-3,1.5231384E-2,0E0,0E0,0E0,0E0],"parents":[2147483647,0,0,1,1,2,2,5,5,6,6],"right_children":[2,4,6,-1,-1,8,10,-1,-1,-1,-1],"split_conditions":[5E-1,7E-1,7E-1,-1.7005381E-3,-1.3625295E-3,6E-1,9E-1,-4.8213443E-4,-9.2086766E-4,5.590539E-4,-3.363386E-4],"split_indices":[0,1,0,0,0,0,0,0,0,0,0],"split_type":[0,0,0,0,0,0,0,0,0,0,0],"sum_hessian":[9.66E3,6.633E3,3.027E3,5.18E3,1.453E3,2.285E3,7.42E2,3.69E2,1.916E3,3.52E2,3.9E2],"tree_param":{"num_deleted":"0","num_feature":"3","num_nodes":"11","size_leaf_vector":"0"}},{"base_weights":[-1.1880688E-2,-1.4533593E-2,-8.632442E-3,-1.3334381E-3,-1.6722482E-3,-5.664423E-3,-1.5045762E-3,-1.3108243E-3,-8.200214E-3,-4.4209408E-4,5.033096E-4,-8.976005E-4,-4.3405054E-4],"categories":[],"categories_nodes":[],"categories_segments":[],"categories_sizes":[],"default_left":[true,true,true,false,false,true,false,false,true,false,false,false,false],"id":23,"left_children":[1,3,5,-1,-1,7,-1,9,11,-1,-1,-1,-1],"loss_changes":[7.733476E-2,6.1067343E-3,7.826215E-2,0E0,0E0,3.1040065E-2,0E0,2.259855E-2,2.2522658E-3,0E0,0E0,0E0,0E0],"parents":[2147483647,0,0,1,1,2,2,5,5,7,7,8,8],"right_children":[2,4,6,-1,-1,8,-1,10,12,-1,-1,-1,-1],"split_conditions":[1E-1,-2E-1,9E-1,-1.3334381E-3,-1.6722482E-3,2.5E-1,-1.5045762E-3,-1E-1,6E-1,-4.4209408E-4,5.033096E-4,-8.976005E-4,-4.3405054E-4],"split_indices":[2,2,2,0,0,1,0,1,1,0,0,0,0],"split_type":[0,0,0,0,0,0,0,0,0,0,0,0,0],"sum_hessian":[9.66E3,5.273E3,4.387E3,3.485E3,1.788E3,3.027E3,1.36E3,1.151E3,1.876E3,7.99E2,3.52E2,1.507E3,3.69E2],"tree_param":{"num_deleted":"0","num_feature":"3","num_nodes":"13","size_leaf_vector":"0"}},{"base_weights":[-1.0703572E-2,-1.3218907E-2,-5.106666E-3,-1.2799356E-3,-1.7432636E-3,-7.0214394E-4,4.5494645E-4,4.5312147E-4,-2.5869402E-4],"categories":[],"categories_nodes":[],"categories_segments":[],"categories_sizes":[],"default_left":[true,false,true,false,false,false,true,false,false],"id":24,"left_children":[1,3,5,-1,-1,-1,7,-1,-1],"loss_changes":[1.3135958E-1,3.9469004E-3,3.3890672E-2,0E0,0E0,0E0,9.710653E-3,0E0,0E0],"parents":[2147483647,0,0,1,1,2,2,6,6],"right_children":[2,4,6,-1,-1,-1,8,-1,-1],"split_conditions":[5E-1,1E-1,7E-1,-1.2799356E-3,-1.7432636E-3,-7.0214394E-4,9E-1,4.5312147E-4,-2.5869402E-4],"split_indices":[0,0,0,0,0,0,0,0,0],"split_type":[0,0,0,0,0,0,0,0,0],"sum_hessian":[9.66E3,6.633E3,3.027E3,6.09E3,5.43E2,2.285E3,7.42E2,3.52E2,3.9E2],"tree_param":{"num_deleted":"0","num_feature":"3","num_nodes":"9","size_leaf_vector":"0"}},{"base_weights":[-9.638746E-3,-1.1901225E-2,-4.5961686E-3,-1.248187E-3,-9.652101E-4,-6.319604E-4,3.7606424E-4,4.0793838E-4,-2.3289175E-4],"categories":[],"categories_nodes":[],"categories_segments":[],"categories_sizes":[],"default_left":[true,false,true,false,false,false,true,false,false],"id":25,"left_children":[1,3,5,-1,-1,-1,7,-1,-1],"loss_changes":[1.0604066E-1,3.009677E-3,2.743616E-2,0E0,0E0,0E0,7.890054E-3,0E0,0E0],"parents":[2147483647,0,0,1,1,2,2,6,6],"right_children":[2,4,6,-1,-1,-1,8,-1,-1],"split_conditions":[5E-1,7E-1,7E-1,-1.248187E-3,-9.652101E-4,-6.319604E-4,9E-1,4.0793838E-4,-2.3289175E-4],"split_indices":[0,1,0,0,0,0,0,0,0],"split_type":[0,0,0,0,0,0,0,0,0],"sum_hessian":[9.66E3,6.633E3,3.027E3,5.18E3,1.453E3,2.285E3,7.42E2,3.52E2,3.9E2],"tree_param":{"num_deleted":"0","num_feature":"3","num_nodes":"9","size_leaf_vector":"0"}},{"base_weights":[-8.680327E-3,-1.071521E-2,-4.1367E-3,-1.0339142E-3,-1.4446669E-3,-5.687922E-3,3.050617E-4,-2.5771416E-4,-6.1549543E-4,3.67262E-4,-2.0966085E-4],"categories":[],"categories_nodes":[],"categories_segments":[],"categories_sizes":[],"default_left":[false,true,false,false,false,true,true,false,false,false,false],"id":26,"left_children":[1,3,5,-1,-1,7,9,-1,-1,-1,-1],"loss_changes":[8.5565865E-2,2.963543E-3,2.2210848E-2,0E0,0E0,1.1222959E-3,6.410911E-3,0E0,0E0,0E0,0E0],"parents":[2147483647,0,0,1,1,2,2,5,5,6,6],"right_children":[2,4,6,-1,-1,8,10,-1,-1,-1,-1],"split_conditions":[5E-1,1E-1,7E-1,-1.0339142E-3,-1.4446669E-3,6E-1,9E-1,-2.5771416E-4,-6.1549543E-4,3.67262E-4,-2.0966085E-4],"split_indices":[0,0,0,0,0,0,0,0,0,0,0],"split_type":[0,0,0,0,0,0,0,0,0,0,0],"sum_hessian":[9.66E3,6.633E3,3.027E3,6.09E3,5.43E2,2.285E3,7.42E2,3.69E2,1.916E3,3.52E2,3.9E2],"tree_param":{"num_deleted":"0","num_feature":"3","num_nodes":"11","size_leaf_vector":"0"}},{"base_weights":[-7.820395E-3,-9.6478425E-3,-3.7315213E-3,-1.0157179E-3,-7.654365E-4,-5.13044E-4,2.4110248E-4,3.306362E-4,-1.887485E-4],"categories":[],"categories_nodes":[],"categories_segments":[],"categories_sizes":[],"default_left":[true,false,true,false,false,false,true,false,false],"id":27,"left_children":[1,3,5,-1,-1,-1,7,-1,-1],"loss_changes":[6.880814E-2,2.2052526E-3,1.8051308E-2,0E0,0E0,0E0,5.2087912E-3,0E0,0E0],"parents":[2147483647,0,0,1,1,2,2,6,6],"right_children":[2,4,6,-1,-1,-1,8,-1,-1],"split_conditions":[5E-1,7E-1,7E-1,-1.0157179E-3,-7.654365E-4,-5.13044E-4,9E-1,3.306362E-4,-1.887485E-4],"split_indices":[0,1,0,0,0,0,0,0,0],"split_type":[0,0,0,0,0,0,0,0,0],"sum_hessian":[9.66E3,6.633E3,3.027E3,5.18E3,1.453E3,2.285E3,7.42E2,3.52E2,3.9E2],"tree_param":{"num_deleted":"0","num_feature":"3","num_nodes":"9","size_leaf_vector":"0"}},{"base_weights":[-7.04375E-3,-8.565575E-3,-5.1560677E-3,-7.647139E-4,-1.0210685E-3,-4.5871342E-4,-6.748961E-3,-2.2865045E-4,2.9766734E-4,-5.003233E-3,-8.967905E-4,-5.6179916E-4,-1.8084775E-4],"categories":[],"categories_nodes":[],"categories_segments":[],"categories_sizes":[],"default_left":[true,false,true,false,false,false,true,false,false,true,false,false,false],"id":28,"left_children":[1,3,5,-1,-1,7,9,-1,-1,11,-1,-1,-1],"loss_changes":[2.427879E-2,3.4261048E-3,3.1027675E-2,0E0,0E0,7.067867E-3,9.001419E-3,0E0,0E0,1.819659E-3,0E0,0E0,0E0],"parents":[2147483647,0,0,1,1,2,2,5,5,6,6,9,9],"right_children":[2,4,6,-1,-1,8,10,-1,-1,12,-1,-1,-1],"split_conditions":[1E-1,-2E-1,2.5E-1,-7.647139E-4,-1.0210685E-3,-1E-1,6.5E-1,-2.2865045E-4,2.9766734E-4,6E-1,-8.967905E-4,-5.6179916E-4,-1.8084775E-4],"split_indices":[2,2,1,0,0,1,2,0,0,1,0,0,0],"split_type":[0,0,0,0,0,0,0,0,0,0,0,0,0],"sum_hessian":[9.66E3,5.273E3,4.387E3,3.485E3,1.788E3,1.151E3,3.236E3,7.99E2,3.52E2,1.876E3,1.36E3,1.507E3,3.69E2],"tree_param":{"num_deleted":"0","num_feature":"3","num_nodes":"13","size_leaf_vector":"0"}},{"base_weights":[-6.350071E-3,-7.82632E-3,-3.03112E-3,-7.5030774E-3,-1.097162E-3,-4.177161E-4,1.6252862E-4,-1.1150037E-3,-7.208476E-4,2.679849E-4,-1.4711713E-4],"categories":[],"categories_nodes":[],"categories_segments":[],"categories_sizes":[],"default_left":[true,true,true,false,false,false,true,false,false,false,false],"id":29,"left_children":[1,3,5,7,-1,-1,9,-1,-1,-1,-1],"loss_changes":[4.459694E-2,2.0437539E-3,1.2086978E-2,1.8741786E-3,0E0,0E0,3.3617339E-3,0E0,0E0,0E0,0E0],"parents":[2147483647,0,0,1,1,2,2,3,3,6,6],"right_children":[2,4,6,8,-1,-1,10,-1,-1,-1,-1],"split_conditions":[5E-1,1E-1,7E-1,-6E-1,-1.097162E-3,-4.177161E-4,9E-1,-1.1150037E-3,-7.208476E-4,2.679849E-4,-1.4711713E-4],"split_indices":[0,0,0,0,0,0,0,0,0,0,0],"split_type":[0,0,0,0,0,0,0,0,0,0,0],"sum_hessian":[9.66E3,6.633E3,3.027E3,6.09E3,5.43E2,2.285E3,7.42E2,3.89E2,5.701E3,3.52E2,3.9E2],"tree_param":{"num_deleted":"0","num_feature":"3","num_nodes":"11","size_leaf_vector":"0"}},{"base_weights":[-5.723157E-3,-6.925553E-3,-4.219702E-3,-6.117998E-4,-8.3555205E-4,-2.7486702E-4,-5.545074E-3,-1.7728796E-4,2.4126259E-4,-4.099136E-3,-7.351453E-4,-4.6391293E-4,-1.2115453E-4],"categories":[],"categories_nodes":[],"categories_segments":[],"categories_sizes":[],"default_left":[true,false,false,false,false,true,true,false,false,true,false,false,false],"id":30,"left_children":[1,3,5,-1,-1,7,9,-1,-1,11,-1,-1,-1],"loss_changes":[1.4649123E-2,2.4208128E-3,2.1485604E-2,0E0,0E0,4.482175E-3,5.5619776E-3,0E0,0E0,1.4584772E-3,0E0,0E0,0E0],"parents":[2147483647,0,0,1,1,2,2,5,5,6,6,9,9],"right_children":[2,4,6,-1,-1,8,10,-1,-1,12,-1,-1,-1],"split_conditions":[1E-1,-2E-1,2.5E-1,-6.117998E-4,-8.3555205E-4,-1E-1,6.5E-1,-1.7728796E-4,2.4126259E-4,6E-1,-7.351453E-4,-4.6391293E-4,-1.2115453E-4],"split_indices":[2,2,1,0,0,1,2,0,0,1,0,0,0],"split_type":[0,0,0,0,0,0,0,0,0,0,0,0,0],"sum_hessian":[9.66E3,5.273E3,4.387E3,3.485E3,1.788E3,1.151E3,3.236E3,7.99E2,3.52E2,1.876E3,1.36E3,1.507E3,3.69E2],"tree_param":{"num_deleted":"0","num_feature":"3","num_nodes":"13","size_leaf_vector":"0"}},{"base_weights":[-5.1614735E-3,-6.2380093E-3,-3.8094204E-3,-9.0424664E-4,-5.861374E-4,-2.2562366E-4,-5.006431E-3,-1.5958071E-4,2.1720317E-4,-3.7028626E-4,-6.616859E-4],"categories":[],"categories_nodes":[],"categories_segments":[],"categories_sizes":[],"default_left":[true,true,true,false,false,false,true,false,false,false,false],"id":31,"left_children":[1,3,5,-1,-1,7,9,-1,-1,-1,-1],"loss_changes":[1.1526287E-2,1.7917305E-3,1.751469E-2,0E0,0E0,3.6439924E-3,4.1910186E-3,0E0,0E0,0E0,0E0],"parents":[2147483647,0,0,1,1,2,2,5,5,6,6],"right_children":[2,4,6,-1,-1,8,10,-1,-1,-1,-1],"split_conditions":[1E-1,-5.5E-1,2.5E-1,-9.0424664E-4,-5.861374E-4,-1E-1,6.5E-1,-1.5958071E-4,2.1720317E-4,-3.7028626E-4,-6.616859E-4],"split_indices":[2,1,1,0,0,1,2,0,0,0,0],"split_type":[0,0,0,0,0,0,0,0,0,0,0],"sum_hessian":[9.66E3,5.273E3,4.387E3,5.43E2,4.73E3,1.151E3,3.236E3,7.99E2,3.52E2,1.876E3,1.36E3],"tree_param":{"num_deleted":"0","num_feature":"3","num_nodes":"11","size_leaf_vector":"0"}},{"base_weights":[-4.653338E-3,-5.61922E-3,-3.434397E-3,-4.920378E-4,-6.838082E-4,-1.8130212E-4,-4.513832E-3,-1.4364155E-4,1.9554456E-4,-4.914346E-4,-7.2143324E-5],"categories":[],"categories_nodes":[],"categories_segments":[],"categories_sizes":[],"default_left":[true,false,true,false,false,true,true,false,false,false,false],"id":32,"left_children":[1,3,5,-1,-1,7,9,-1,-1,-1,-1],"loss_changes":[9.091705E-3,1.5190989E-3,1.4233876E-2,0E0,0E0,2.9625546E-3,3.5042241E-3,0E0,0E0,0E0,0E0],"parents":[2147483647,0,0,1,1,2,2,5,5,6,6],"right_children":[2,4,6,-1,-1,8,10,-1,-1,-1,-1],"split_conditions":[1E-1,-2E-1,2.5E-1,-4.920378E-4,-6.838082E-4,-1E-1,7E-1,-1.4364155E-4,1.9554456E-4,-4.914346E-4,-7.2143324E-5],"split_indices":[2,2,1,0,0,1,1,0,0,0,0],"split_type":[0,0,0,0,0,0,0,0,0,0,0],"sum_hessian":[9.66E3,5.273E3,4.387E3,3.485E3,1.788E3,1.151E3,3.236E3,7.99E2,3.52E2,2.867E3,3.69E2],"tree_param":{"num_deleted":"0","num_feature":"3","num_nodes":"11","size_leaf_vector":"0"}},{"base_weights":[-4.1959397E-3,-5.0622597E-3,-3.0967672E-3,-7.457338E-4,-4.7329455E-4,-1.4142686E-4,-4.07034E-3,-1.2929477E-4,1.7604374E-4,-2.9240156E-4,-5.464595E-4],"categories":[],"categories_nodes":[],"categories_segments":[],"categories_sizes":[],"default_left":[true,true,true,false,false,false,true,false,false,false,false],"id":33,"left_children":[1,3,5,-1,-1,7,9,-1,-1,-1,-1],"loss_changes":[7.1441084E-3,1.0769069E-3,1.1571806E-2,0E0,0E0,2.4083252E-3,3.0604675E-3,0E0,0E0,0E0,0E0],"parents":[2147483647,0,0,1,1,2,2,5,5,6,6],"right_children":[2,4,6,-1,-1,8,10,-1,-1,-1,-1],"split_conditions":[1E-1,-5.5E-1,2.5E-1,-7.457338E-4,-4.7329455E-4,-1E-1,6.5E-1,-1.2929477E-4,1.7604374E-4,-2.9240156E-4,-5.464595E-4],"split_indices":[2,1,1,0,0,1,2,0,0,0,0],"split_type":[0,0,0,0,0,0,0,0,0,0,0],"sum_hessian":[9.66E3,5.273E3,4.387E3,5.43E2,4.73E3,1.151E3,3.236E3,7.99E2,3.52E2,1.876E3,1.36E3],"tree_param":{"num_deleted":"0","num_feature":"3","num_nodes":"11","size_leaf_vector":"0"}},{"base_weights":[-3.784323E-3,-4.6727294E-3,-1.7541139E-3,-7.8801636E-4,-4.4316454E-3,-2.4457063E-4,3.9606202E-5,-3.3790802E-4,-5.3860317E-4,1.5848635E-4,-7.161878E-5],"categories":[],"categories_nodes":[],"categories_segments":[],"categories_sizes":[],"default_left":[true,true,true,false,true,false,true,false,false,false,false],"id":34,"left_children":[1,3,5,-1,7,-1,9,-1,-1,-1,-1],"loss_changes":[1.5810177E-2,2.0169467E-3,4.3579247E-3,0E0,4.063964E-3,0E0,1.0860508E-3,0E0,0E0,0E0,0E0],"parents":[2147483647,0,0,1,1,2,2,4,4,6,6],"right_children":[2,4,6,-1,8,-1,10,-1,-1,-1,-1],"split_conditions":[5E-1,-6E-1,7E-1,-7.8801636E-4,-2E-1,-2.4457063E-4,9E-1,-3.3790802E-4,-5.3860317E-4,1.5848635E-4,-7.161878E-5],"split_indices":[0,0,0,0,2,0,0,0,0,0,0],"split_type":[0,0,0,0,0,0,0,0,0,0,0],"sum_hessian":[9.66E3,6.633E3,3.027E3,3.89E2,6.244E3,2.285E3,7.42E2,3.096E3,3.148E3,3.52E2,3.9E2],"tree_param":{"num_deleted":"0","num_feature":"3","num_nodes":"11","size_leaf_vector":"0"}},{"base_weights":[-3.4138442E-3,-4.2132423E-3,-1.578764E-3,-7.0941757E-4,-3.992622E-3,-2.2012554E-4,2.1168073E-7,-3.04129E-4,-4.8475858E-4],"categories":[],"categories_nodes":[],"categories_segments":[],"categories_sizes":[],"default_left":[false,false,false,false,true,false,false,false,false],"id":35,"left_children":[1,3,5,-1,7,-1,-1,-1,-1],"loss_changes":[1.2717657E-2,1.4165118E-3,3.529599E-3,0E0,3.092438E-3,0E0,0E0,0E0,0E0],"parents":[2147483647,0,0,1,1,2,2,4,4],"right_children":[2,4,6,-1,8,-1,-1,-1,-1],"split_conditions":[5E-1,-6E-1,7E-1,-7.0941757E-4,-2E-1,-2.2012554E-4,2.1168073E-7,-3.04129E-4,-4.8475858E-4],"split_indices":[0,0,0,0,2,0,0,0,0],"split_type":[0,0,0,0,0,0,0,0,0],"sum_hessian":[9.66E3,6.633E3,3.027E3,3.89E2,6.244E3,2.285E3,7.42E2,3.096E3,3.148E3],"tree_param":{"num_deleted":"0","num_feature":"3","num_nodes":"9","size_leaf_vector":"0"}},{"base_weights":[-3.0778127E-3,-3.799677E-4,-1.4127119E-3,-1.9812316E-4,1.8895395E-7],"categories":[],"categories_nodes":[],"categories_segments":[],"categories_sizes":[],"default_left":[true,false,true,false,false],"id":36,"left_children":[1,-1,3,-1,-1],"loss_changes":[1.0303825E-2,0E0,2.9300451E-3,0E0,0E0],"parents":[2147483647,0,0,2,2],"right_children":[2,-1,4,-1,-1],"split_conditions":[5E-1,-3.799677E-4,7E-1,-1.9812316E-4,1.8895395E-7],"split_indices":[0,0,0,0,0],"split_type":[0,0,0,0,0],"sum_hessian":[9.66E3,6.633E3,3.027E3,2.285E3,7.42E2],"tree_param":{"num_deleted":"0","num_feature":"3","num_nodes":"5","size_leaf_vector":"0"}},{"base_weights":[-2.7700814E-3,-3.419754E-3,-1.2632454E-3,-6.007575E-4,-3.2175651E-3,-0E0,-1.9693302E-3,-2.9733198E-4,-5.312181E-4,-7.902451E-5,1.4264077E-4,-0E0,-2.3598099E-4],"categories":[],"categories_nodes":[],"categories_segments":[],"categories_sizes":[],"default_left":[true,false,true,false,true,true,true,false,false,false,false,false,false],"id":37,"left_children":[1,3,5,-1,7,9,11,-1,-1,-1,-1,-1,-1],"loss_changes":[8.282572E-3,1.1454895E-3,2.4474487E-3,0E0,1.1077747E-3,1.2178174E-3,1.1181054E-3,0E0,0E0,0E0,0E0,0E0,0E0],"parents":[2147483647,0,0,1,1,2,2,4,4,5,5,6,6],"right_children":[2,4,6,-1,8,10,12,-1,-1,-1,-1,-1,-1],"split_conditions":[5E-1,-6E-1,2.5E-1,-6.007575E-4,1E-1,-1E-1,6E-1,-2.9733198E-4,-5.312181E-4,-7.902451E-5,1.4264077E-4,-0E0,-2.3598099E-4],"split_indices":[0,0,1,0,0,1,0,0,0,0,0,0,0],"split_type":[0,0,0,0,0,0,0,0,0,0,0,0,0],"sum_hessian":[9.66E3,6.633E3,3.027E3,3.89E2,6.244E3,1.151E3,1.876E3,5.701E3,5.43E2,7.99E2,3.52E2,3.69E2,1.507E3],"tree_param":{"num_deleted":"0","num_feature":"3","num_nodes":"13","size_leaf_vector":"0"}},{"base_weights":[-2.502425E-3,-3.085526E-4,-1.1415293E-3,-1.6134902E-4,-0E0],"categories":[],"categories_nodes":[],"categories_segments":[],"categories_sizes":[],"default_left":[true,false,true,false,false],"id":38,"left_children":[1,-1,3,-1,-1],"loss_changes":[6.6060983E-3,0E0,2.0055063E-3,0E0,0E0],"parents":[2147483647,0,0,2,2],"right_children":[2,-1,4,-1,-1],"split_conditions":[5E-1,-3.085526E-4,7E-1,-1.6134902E-4,-0E0],"split_indices":[0,0,0,0,0],"split_type":[0,0,0,0,0],"sum_hessian":[9.66E3,6.633E3,3.027E3,2.285E3,7.42E2],"tree_param":{"num_deleted":"0","num_feature":"3","num_nodes":"5","size_leaf_vector":"0"}},{"base_weights":[-2.2524248E-3,-2.777029E-4,-1.0197709E-3,-0E0,-1.6186078E-4],"categories":[],"categories_nodes":[],"categories_segments":[],"categories_sizes":[],"default_left":[true,false,true,false,false],"id":39,"left_children":[1,-1,3,-1,-1],"loss_changes":[5.2953027E-3,0E0,1.7686193E-3,0E0,0E0],"parents":[2147483647,0,0,2,2],"right_children":[2,-1,4,-1,-1],"split_conditions":[5E-1,-2.777029E-4,2.5E-1,-0E0,-1.6186078E-4],"split_indices":[0,0,1,0,0],"split_type":[0,0,0,0,0],"sum_hessian":[9.66E3,6.633E3,3.027E3,1.151E3,1.876E3],"tree_param":{"num_deleted":"0","num_feature":"3","num_nodes":"5","size_leaf_vector":"0"}},{"base_weights":[-2.0303347E-3,-4.1967686E-4,-1.8734393E-4],"categories":[],"categories_nodes":[],"categories_segments":[],"categories_sizes":[],"default_left":[true,false,false],"id":40,"left_children":[1,-1,-1],"loss_changes":[1.7583892E-3,0E0,0E0],"parents":[2147483647,0,0],"right_children":[2,-1,-1],"split_conditions":[-5.5E-1,-4.1967686E-4,-1.8734393E-4],"split_indices":[1,0,0],"split_type":[0,0,0],"sum_hessian":[9.66E3,5.43E2,9.117E3],"tree_param":{"num_deleted":"0","num_feature":"3","num_nodes":"3","size_leaf_vector":"0"}},{"base_weights":[-1.8299578E-3,-3.777862E-4,-1.6861226E-4],"categories":[],"categories_nodes":[],"categories_segments":[],"categories_sizes":[],"default_left":[true,false,false],"id":41,"left_children":[1,-1,-1],"loss_changes":[1.3344251E-3,0E0,0E0],"parents":[2147483647,0,0],"right_children":[2,-1,-1],"split_conditions":[-5.5E-1,-3.777862E-4,-1.6861226E-4],"split_indices":[1,0,0],"split_type":[0,0,0],"sum_hessian":[9.66E3,5.43E2,9.117E3],"tree_param":{"num_deleted":"0","num_feature":"3","num_nodes":"3","size_leaf_vector":"0"}},{"base_weights":[-1.6495984E-3,-2.107331E-3,-5.6365127E-4,-4.4685794E-4,-1.9195018E-3,-9.635808E-5,3.3110307E-5,-1.1182608E-4,-2.627512E-4],"categories":[],"categories_nodes":[],"categories_segments":[],"categories_sizes":[],"default_left":[true,true,true,false,false,false,false,false,false],"id":42,"left_children":[1,3,5,-1,7,-1,-1,-1,-1],"loss_changes":[4.1332934E-3,1.3366584E-3,1.2419741E-3,0E0,2.6033241E-3,0E0,0E0,0E0,0E0],"parents":[2147483647,0,0,1,1,2,2,4,4],"right_children":[2,4,6,-1,8,-1,-1,-1,-1],"split_conditions":[5E-1,-6E-1,7E-1,-4.4685794E-4,-2E-1,-9.635808E-5,3.3110307E-5,-1.1182608E-4,-2.627512E-4],"split_indices":[0,0,0,0,2,0,0,0,0],"split_type":[0,0,0,0,0,0,0,0,0],"sum_hessian":[9.66E3,6.633E3,3.027E3,3.89E2,6.244E3,2.285E3,7.42E2,3.096E3,3.148E3],"tree_param":{"num_deleted":"0","num_feature":"3","num_nodes":"9","size_leaf_vector":"0"}},{"base_weights":[-1.4899132E-3],"categories":[],"categories_nodes":[],"categories_segments":[],"categories_sizes":[],"default_left":[false],"id":43,"left_children":[-1],"loss_changes":[0E0],"parents":[2147483647],"right_children":[-1],"split_conditions":[-1.4899133E-4],"split_indices":[0],"split_type":[0],"sum_hessian":[9.66E3],"tree_param":{"num_deleted":"0","num_feature":"3","num_nodes":"1","size_leaf_vector":"0"}},{"base_weights":[-1.3409456E-3,-1.7553096E-3,-3.5011668E-5,-3.8742667E-4,-1.5826677E-3,-8.575449E-5,-2.2159236E-4],"categories":[],"categories_nodes":[],"categories_segments":[],"categories_sizes":[],"default_left":[true,true,false,false,false,false,false],"id":44,"left_children":[1,3,-1,-1,5,-1,-1],"loss_changes":[3.4394842E-3,1.0564886E-3,0E0,0E0,2.0973645E-3,0E0,0E0],"parents":[2147483647,0,0,1,1,4,4],"right_children":[2,4,-1,-1,6,-1,-1],"split_conditions":[5E-1,-6E-1,-3.5011668E-5,-3.8742667E-4,-2E-1,-8.575449E-5,-2.2159236E-4],"split_indices":[0,0,0,0,2,0,0],"split_type":[0,0,0,0,0,0,0],"sum_hessian":[9.66E3,6.633E3,3.027E3,3.89E2,6.244E3,3.096E3,3.148E3],"tree_param":{"num_deleted":"0","num_feature":"3","num_nodes":"7","size_leaf_vector":"0"}},{"base_weights":[-1.214697E-3,-1.3839183E-3,4.8180354E-5,-1.603988E-4,-3.892836E-5],"categories":[],"categories_nodes":[],"categories_segments":[],"categories_sizes":[],"default_left":[true,true,false,false,false],"id":45,"left_children":[1,3,-1,-1,-1],"loss_changes":[2.9997136E-3,1.4533289E-3,0E0,0E0,0E0],"parents":[2147483647,0,0,1,1],"right_children":[2,4,-1,-1,-1],"split_conditions":[7E-1,7E-1,4.8180354E-5,-1.603988E-4,-3.892836E-5],"split_indices":[0,1,0,0,0],"split_type":[0,0,0,0,0],"sum_hessian":[9.66E3,8.918E3,7.42E2,7.096E3,1.822E3],"tree_param":{"num_deleted":"0","num_feature":"3","num_nodes":"5","size_leaf_vector":"0"}},{"base_weights":[-1.093246E-3,-1.4536658E-4,-2.2068385E-5],"categories":[],"categories_nodes":[],"categories_segments":[],"categories_sizes":[],"default_left":[true,false,false],"id":46,"left_children":[1,-1,-1],"loss_changes":[2.6193662E-3,0E0,0E0],"parents":[2147483647,0,0],"right_children":[2,-1,-1],"split_conditions":[5E-1,-1.4536658E-4,-2.2068385E-5],"split_indices":[0,0,0],"split_type":[0,0,0],"sum_hessian":[9.66E3,6.633E3,3.027E3],"tree_param":{"num_deleted":"0","num_feature":"3","num_nodes":"3","size_leaf_vector":"0"}},{"base_weights":[-9.865245E-4,-1.1345904E-3,4.5571738E-5,-3.1828412E-4,-1.0115009E-4],"categories":[],"categories_nodes":[],"categories_segments":[],"categories_sizes":[],"default_left":[false,true,false,false,false],"id":47,"left_children":[1,3,-1,-1,-1],"loss_changes":[2.2333115E-3,1.1968352E-3,0E0,0E0,0E0],"parents":[2147483647,0,0,1,1],"right_children":[2,4,-1,-1,-1],"split_conditions":[7E-1,-6E-1,4.5571738E-5,-3.1828412E-4,-1.0115009E-4],"split_indices":[0,0,0,0,0],"split_type":[0,0,0,0,0],"sum_hessian":[9.66E3,8.918E3,7.42E2,3.89E2,8.529E3],"tree_param":{"num_deleted":"0","num_feature":"3","num_nodes":"5","size_leaf_vector":"0"}},{"base_weights":[-8.879122E-4,-1.1944454E-4,-1.3347708E-5],"categories":[],"categories_nodes":[],"categories_segments":[],"categories_sizes":[],"default_left":[false,false,false],"id":48,"left_children":[1,-1,-1],"loss_changes":[1.9020573E-3,0E0,0E0],"parents":[2147483647,0,0],"right_children":[2,-1,-1],"split_conditions":[5E-1,-1.1944454E-4,-1.3347708E-5],"split_indices":[0,0,0],"split_type":[0,0,0],"sum_hessian":[9.66E3,6.633E3,3.027E3],"tree_param":{"num_deleted":"0","num_feature":"3","num_nodes":"3","size_leaf_vector":"0"}},{"base_weights":[-8.017192E-4],"categories":[],"categories_nodes":[],"categories_segments":[],"categories_sizes":[],"default_left":[false],"id":49,"left_children":[-1],"loss_changes":[0E0],"parents":[2147483647],"right_children":[-1],"split_conditions":[-8.017192E-5],"split_indices":[0],"split_type":[0],"sum_hessian":[9.66E3],"tree_param":{"num_deleted":"0","num_feature":"3","num_nodes":"1","size_leaf_vector":"0"}},{"base_weights":[-7.215597E-4,-8.515703E-4,5.0358947E-5,-1.0475722E-4,-0E0],"categories":[],"categories_nodes":[],"categories_segments":[],"categories_sizes":[],"default_left":[true,true,false,false,false],"id":50,"left_children":[1,3,-1,-1,-1],"loss_changes":[1.6262508E-3,1.3204925E-3,0E0,0E0,0E0],"parents":[2147483647,0,0,1,1],"right_children":[2,4,-1,-1,-1],"split_conditions":[7E-1,7E-1,5.0358947E-5,-1.0475722E-4,-0E0],"split_indices":[0,1,0,0,0],"split_type":[0,0,0,0,0],"sum_hessian":[9.66E3,8.918E3,7.42E2,7.096E3,1.822E3],"tree_param":{"num_deleted":"0","num_feature":"3","num_nodes":"5","size_leaf_vector":"0"}},{"base_weights":[-6.484849E-4],"categories":[],"categories_nodes":[],"categories_segments":[],"categories_sizes":[],"default_left":[false],"id":51,"left_children":[-1],"loss_changes":[0E0],"parents":[2147483647],"right_children":[-1],"split_conditions":[-6.484849E-5],"split_indices":[0],"split_type":[0],"sum_hessian":[9.66E3],"tree_param":{"num_deleted":"0","num_feature":"3","num_nodes":"1","size_leaf_vector":"0"}},{"base_weights":[-5.8364175E-4,-8.482239E-5,-0E0],"categories":[],"categories_nodes":[],"categories_segments":[],"categories_sizes":[],"default_left":[false,false,false],"id":52,"left_children":[1,-1,-1],"loss_changes":[1.4821547E-3,0E0,0E0],"parents":[2147483647,0,0],"right_children":[2,-1,-1],"split_conditions":[5E-1,-8.482239E-5,-0E0],"split_indices":[0,0,0],"split_type":[0,0,0],"sum_hessian":[9.66E3,6.633E3,3.027E3],"tree_param":{"num_deleted":"0","num_feature":"3","num_nodes":"3","size_leaf_vector":"0"}},{"base_weights":[-5.2540825E-4],"categories":[],"categories_nodes":[],"categories_segments":[],"categories_sizes":[],"default_left":[false],"id":53,"left_children":[-1],"loss_changes":[0E0],"parents":[2147483647],"right_children":[-1],"split_conditions":[-5.2540825E-5],"split_indices":[0],"split_type":[0],"sum_hessian":[9.66E3],"tree_param":{"num_deleted":"0","num_feature":"3","num_nodes":"1","size_leaf_vector":"0"}},{"base_weights":[-4.728734E-4,-2.3600878E-4,-3.664793E-5],"categories":[],"categories_nodes":[],"categories_segments":[],"categories_sizes":[],"default_left":[true,false,false],"id":54,"left_children":[1,-1,-1],"loss_changes":[1.2573116E-3,0E0,0E0],"parents":[2147483647,0,0],"right_children":[2,-1,-1],"split_conditions":[-6E-1,-2.3600878E-4,-3.664793E-5],"split_indices":[0,0,0],"split_type":[0,0,0],"sum_hessian":[9.66E3,3.89E2,9.271E3],"tree_param":{"num_deleted":"0","num_feature":"3","num_nodes":"3","size_leaf_vector":"0"}},{"base_weights":[-4.281936E-4,-6.625453E-5,2.8225398E-7],"categories":[],"categories_nodes":[],"categories_segments":[],"categories_sizes":[],"default_left":[true,false,false],"id":55,"left_children":[1,-1,-1],"loss_changes":[1.1407838E-3,0E0,0E0],"parents":[2147483647,0,0],"right_children":[2,-1,-1],"split_conditions":[5E-1,-6.625453E-5,2.8225398E-7],"split_indices":[0,0,0],"split_type":[0,0,0],"sum_hessian":[9.66E3,6.633E3,3.027E3],"tree_param":{"num_deleted":"0","num_feature":"3","num_nodes":"3","size_leaf_vector":"0"}},{"base_weights":[-3.827925E-4,-4.9322116E-5,6.068385E-4,1.91444E-4,-0E0],"categories":[],"categories_nodes":[],"categories_segments":[],"categories_sizes":[],"default_left":[false,false,true,false,false],"id":56,"left_children":[1,-1,3,-1,-1],"loss_changes":[1.0276838E-3,0E0,1.0201616E-3,0E0,0E0],"parents":[2147483647,0,0,2,2],"right_children":[2,-1,4,-1,-1],"split_conditions":[7E-1,-4.9322116E-5,9E-1,1.91444E-4,-0E0],"split_indices":[0,0,0,0,0],"split_type":[0,0,0,0,0],"sum_hessian":[9.66E3,8.918E3,7.42E2,3.52E2,3.9E2],"tree_param":{"num_deleted":"0","num_feature":"3","num_nodes":"5","size_leaf_vector":"0"}},{"base_weights":[-3.442389E-4],"categories":[],"categories_nodes":[],"categories_segments":[],"categories_sizes":[],"default_left":[false],"id":57,"left_children":[-1],"loss_changes":[0E0],"parents":[2147483647],"right_children":[-1],"split_conditions":[-3.442389E-5],"split_indices":[0],"split_type":[0],"sum_hessian":[9.66E3],"tree_param":{"num_deleted":"0","num_feature":"3","num_nodes":"1","size_leaf_vector":"0"}},{"base_weights":[-3.098196E-4],"categories":[],"categories_nodes":[],"categories_segments":[],"categories_sizes":[],"default_left":[false],"id":58,"left_children":[-1],"loss_changes":[0E0],"parents":[2147483647],"right_children":[-1],"split_conditions":[-3.098196E-5],"split_indices":[0],"split_type":[0],"sum_hessian":[9.66E3],"tree_param":{"num_deleted":"0","num_feature":"3","num_nodes":"1","size_leaf_vector":"0"}},{"base_weights":[-2.7882837E-4,-1.9441654E-4,-1.817878E-4,-1.6395793E-4,-6.227579E-5,3.976996E-5,-3.210069E-5],"categories":[],"categories_nodes":[],"categories_segments":[],"categories_sizes":[],"default_left":[true,false,false,false,true,false,false],"id":59,"left_children":[1,-1,3,-1,5,-1,-1],"loss_changes":[1.0294265E-3,0E0,1.1898353E-3,0E0,1.019792E-3,0E0,0E0],"parents":[2147483647,0,0,2,2,4,4],"right_children":[2,-1,4,-1,6,-1,-1],"split_conditions":[-6E-1,-1.9441654E-4,-5.5E-1,-1.6395793E-4,2.5E-1,3.976996E-5,-3.210069E-5],"split_indices":[0,0,1,0,1,0,0],"split_type":[0,0,0,0,0,0,0],"sum_hessian":[9.66E3,3.89E2,9.271E3,5.43E2,8.728E3,2.794E3,5.934E3],"tree_param":{"num_deleted":"0","num_feature":"3","num_nodes":"7","size_leaf_vector":"0"}},{"base_weights":[-2.5356622E-4],"categories":[],"categories_nodes":[],"categories_segments":[],"categories_sizes":[],"default_left":[false],"id":60,"left_children":[-1],"loss_changes":[0E0],"parents":[2147483647],"right_children":[-1],"split_conditions":[-2.5356623E-5],"split_indices":[0],"split_type":[0],"sum_hessian":[9.66E3],"tree_param":{"num_deleted":"0","num_feature":"3","num_nodes":"1","size_leaf_vector":"0"}},{"base_weights":[-2.2820821E-4],"categories":[],"categories_nodes":[],"categories_segments":[],"categories_sizes":[],"default_left":[false],"id":61,"left_children":[-1],"loss_changes":[0E0],"parents":[2147483647],"right_children":[-1],"split_conditions":[-2.2820821E-5],"split_indices":[0],"split_type":[0],"sum_hessian":[9.66E3],"tree_param":{"num_deleted":"0","num_feature":"3","num_nodes":"1","size_leaf_vector":"0"}},{"base_weights":[-2.0538202E-4],"categories":[],"categories_nodes":[],"categories_segments":[],"categories_sizes":[],"default_left":[false],"id":62,"left_children":[-1],"loss_changes":[0E0],"parents":[2147483647],"right_children":[-1],"split_conditions":[-2.0538202E-5],"split_indices":[0],"split_type":[0],"sum_hessian":[9.66E3],"tree_param":{"num_deleted":"0","num_feature":"3","num_nodes":"1","size_leaf_vector":"0"}},{"base_weights":[-1.8484925E-4],"categories":[],"categories_nodes":[],"categories_segments":[],"categories_sizes":[],"default_left":[false],"id":63,"left_children":[-1],"loss_changes":[0E0],"parents":[2147483647],"right_children":[-1],"split_conditions":[-1.8484925E-5],"split_indices":[0],"split_type":[0],"sum_hessian":[9.66E3],"tree_param":{"num_deleted":"0","num_feature":"3","num_nodes":"1","size_leaf_vector":"0"}},{"base_weights":[-1.6637387E-4],"categories":[],"categories_nodes":[],"categories_segments":[],"categories_sizes":[],"default_left":[false],"id":64,"left_children":[-1],"loss_changes":[0E0],"parents":[2147483647],"right_children":[-1],"split_conditions":[-1.6637387E-5],"split_indices":[0],"split_type":[0],"sum_hessian":[9.66E3],"tree_param":{"num_deleted":"0","num_feature":"3","num_nodes":"1","size_leaf_vector":"0"}},{"base_weights":[-1.4974602E-4],"categories":[],"categories_nodes":[],"categories_segments":[],"categories_sizes":[],"default_left":[false],"id":65,"left_children":[-1],"loss_changes":[0E0],"parents":[2147483647],"right_children":[-1],"split_conditions":[-1.4974602E-5],"split_indices":[0],"split_type":[0],"sum_hessian":[9.66E3],"tree_param":{"num_deleted":"0","num_feature":"3","num_nodes":"1","size_leaf_vector":"0"}},{"base_weights":[-1.3478653E-4],"categories":[],"categories_nodes":[],"categories_segments":[],"categories_sizes":[],"default_left":[false],"id":66,"left_children":[-1],"loss_changes":[0E0],"parents":[2147483647],"right_children":[-1],"split_conditions":[-1.3478653E-5],"split_indices":[0],"split_type":[0],"sum_hessian":[9.66E3],"tree_param":{"num_deleted":"0","num_feature":"3","num_nodes":"1","size_leaf_vector":"0"}},{"base_weights":[-1.21317324E-4],"categories":[],"categories_nodes":[],"categories_segments":[],"categories_sizes":[],"default_left":[false],"id":67,"left_children":[-1],"loss_changes":[0E0],"parents":[2147483647],"right_children":[-1],"split_conditions":[-1.2131733E-5],"split_indices":[0],"split_type":[0],"sum_hessian":[9.66E3],"tree_param":{"num_deleted":"0","num_feature":"3","num_nodes":"1","size_leaf_vector":"0"}},{"base_weights":[-1.0918816E-4],"categories":[],"categories_nodes":[],"categories_segments":[],"categories_sizes":[],"default_left":[false],"id":68,"left_children":[-1],"loss_changes":[0E0],"parents":[2147483647],"right_children":[-1],"split_conditions":[-1.0918816E-5],"split_indices":[0],"split_type":[0],"sum_hessian":[9.66E3],"tree_param":{"num_deleted":"0","num_feature":"3","num_nodes":"1","size_leaf_vector":"0"}},{"base_weights":[-9.8281365E-5],"categories":[],"categories_nodes":[],"categories_segments":[],"categories_sizes":[],"default_left":[false],"id":69,"left_children":[-1],"loss_changes":[0E0],"parents":[2147483647],"right_children":[-1],"split_conditions":[-9.828137E-6],"split_indices":[0],"split_type":[0],"sum_hessian":[9.66E3],"tree_param":{"num_deleted":"0","num_feature":"3","num_nodes":"1","size_leaf_vector":"0"}},{"base_weights":[-8.844779E-5],"categories":[],"categories_nodes":[],"categories_segments":[],"categories_sizes":[],"default_left":[false],"id":70,"left_children":[-1],"loss_changes":[0E0],"parents":[2147483647],"right_children":[-1],"split_conditions":[-8.84478E-6],"split_indices":[0],"split_type":[0],"sum_hessian":[9.66E3],"tree_param":{"num_deleted":"0","num_feature":"3","num_nodes":"1","size_leaf_vector":"0"}},{"base_weights":[-7.959849E-5],"categories":[],"categories_nodes":[],"categories_segments":[],"categories_sizes":[],"default_left":[false],"id":71,"left_children":[-1],"loss_changes":[0E0],"parents":[2147483647],"right_children":[-1],"split_conditions":[-7.959849E-6],"split_indices":[0],"split_type":[0],"sum_hessian":[9.66E3],"tree_param":{"num_deleted":"0","num_feature":"3","num_nodes":"1","size_leaf_vector":"0"}},{"base_weights":[-7.164087E-5],"categories":[],"categories_nodes":[],"categories_segments":[],"categories_sizes":[],"default_left":[false],"id":72,"left_children":[-1],"loss_changes":[0E0],"parents":[2147483647],"right_children":[-1],"split_conditions":[-7.164087E-6],"split_indices":[0],"split_type":[0],"sum_hessian":[9.66E3],"tree_param":{"num_deleted":"0","num_feature":"3","num_nodes":"1","size_leaf_vector":"0"}},{"base_weights":[-6.448905E-5],"categories":[],"categories_nodes":[],"categories_segments":[],"categories_sizes":[],"default_left":[false],"id":73,"left_children":[-1],"loss_changes":[0E0],"parents":[2147483647],"right_children":[-1],"split_conditions":[-6.4489054E-6],"split_indices":[0],"split_type":[0],"sum_hessian":[9.66E3],"tree_param":{"num_deleted":"0","num_feature":"3","num_nodes":"1","size_leaf_vector":"0"}},{"base_weights":[-5.8052417E-5],"categories":[],"categories_nodes":[],"categories_segments":[],"categories_sizes":[],"default_left":[false],"id":74,"left_children":[-1],"loss_changes":[0E0],"parents":[2147483647],"right_children":[-1],"split_conditions":[-5.805242E-6],"split_indices":[0],"split_type":[0],"sum_hessian":[9.66E3],"tree_param":{"num_deleted":"0","num_feature":"3","num_nodes":"1","size_leaf_vector":"0"}},{"base_weights":[-5.2242813E-5],"categories":[],"categories_nodes":[],"categories_segments":[],"categories_sizes":[],"default_left":[false],"id":75,"left_children":[-1],"loss_changes":[0E0],"parents":[2147483647],"right_children":[-1],"split_conditions":[-5.2242813E-6],"split_indices":[0],"split_type":[0],"sum_hessian":[9.66E3],"tree_param":{"num_deleted":"0","num_feature":"3","num_nodes":"1","size_leaf_vector":"0"}},{"base_weights":[-4.7026675E-5],"categories":[],"categories_nodes":[],"categories_segments":[],"categories_sizes":[],"default_left":[false],"id":76,"left_children":[-1],"loss_changes":[0E0],"parents":[2147483647],"right_children":[-1],"split_conditions":[-4.7026674E-6],"split_indices":[0],"split_type":[0],"sum_hessian":[9.66E3],"tree_param":{"num_deleted":"0","num_feature":"3","num_nodes":"1","size_leaf_vector":"0"}},{"base_weights":[-4.231842E-5],"categories":[],"categories_nodes":[],"categories_segments":[],"categories_sizes":[],"default_left":[false],"id":77,"left_children":[-1],"loss_changes":[0E0],"parents":[2147483647],"right_children":[-1],"split_conditions":[-4.231842E-6],"split_indices":[0],"split_type":[0],"sum_hessian":[9.66E3],"tree_param":{"num_deleted":"0","num_feature":"3","num_nodes":"1","size_leaf_vector":"0"}},{"base_weights":[-3.8086953E-5],"categories":[],"categories_nodes":[],"categories_segments":[],"categories_sizes":[],"default_left":[false],"id":78,"left_children":[-1],"loss_changes":[0E0],"parents":[2147483647],"right_children":[-1],"split_conditions":[-3.8086953E-6],"split_indices":[0],"split_type":[0],"sum_hessian":[9.66E3],"tree_param":{"num_deleted":"0","num_feature":"3","num_nodes":"1","size_leaf_vector":"0"}},{"base_weights":[-3.4272653E-5],"categories":[],"categories_nodes":[],"categories_segments":[],"categories_sizes":[],"default_left":[false],"id":79,"left_children":[-1],"loss_changes":[0E0],"parents":[2147483647],"right_children":[-1],"split_conditions":[-3.4272653E-6],"split_indices":[0],"split_type":[0],"sum_hessian":[9.66E3],"tree_param":{"num_deleted":"0","num_feature":"3","num_nodes":"1","size_leaf_vector":"0"}},{"base_weights":[-3.084679E-5],"categories":[],"categories_nodes":[],"categories_segments":[],"categories_sizes":[],"default_left":[false],"id":80,"left_children":[-1],"loss_changes":[0E0],"parents":[2147483647],"right_children":[-1],"split_conditions":[-3.084679E-6],"split_indices":[0],"split_type":[0],"sum_hessian":[9.66E3],"tree_param":{"num_deleted":"0","num_feature":"3","num_nodes":"1","size_leaf_vector":"0"}},{"base_weights":[-2.7747668E-5],"categories":[],"categories_nodes":[],"categories_segments":[],"categories_sizes":[],"default_left":[false],"id":81,"left_children":[-1],"loss_changes":[0E0],"parents":[2147483647],"right_children":[-1],"split_conditions":[-2.774767E-6],"split_indices":[0],"split_type":[0],"sum_hessian":[9.66E3],"tree_param":{"num_deleted":"0","num_feature":"3","num_nodes":"1","size_leaf_vector":"0"}},{"base_weights":[-2.497529E-5],"categories":[],"categories_nodes":[],"categories_segments":[],"categories_sizes":[],"default_left":[false],"id":82,"left_children":[-1],"loss_changes":[0E0],"parents":[2147483647],"right_children":[-1],"split_conditions":[-2.497529E-6],"split_indices":[0],"split_type":[0],"sum_hessian":[9.66E3],"tree_param":{"num_deleted":"0","num_feature":"3","num_nodes":"1","size_leaf_vector":"0"}},{"base_weights":[-2.2472104E-5],"categories":[],"categories_nodes":[],"categories_segments":[],"categories_sizes":[],"default_left":[false],"id":83,"left_children":[-1],"loss_changes":[0E0],"parents":[2147483647],"right_children":[-1],"split_conditions":[-2.2472104E-6],"split_indices":[0],"split_type":[0],"sum_hessian":[9.66E3],"tree_param":{"num_deleted":"0","num_feature":"3","num_nodes":"1","size_leaf_vector":"0"}},{"base_weights":[-2.0236137E-5],"categories":[],"categories_nodes":[],"categories_segments":[],"categories_sizes":[],"default_left":[false],"id":84,"left_children":[-1],"loss_changes":[0E0],"parents":[2147483647],"right_children":[-1],"split_conditions":[-2.0236137E-6],"split_indices":[0],"split_type":[0],"sum_hessian":[9.66E3],"tree_param":{"num_deleted":"0","num_feature":"3","num_nodes":"1","size_leaf_vector":"0"}},{"base_weights":[-1.8209937E-5],"categories":[],"categories_nodes":[],"categories_segments":[],"categories_sizes":[],"default_left":[false],"id":85,"left_children":[-1],"loss_changes":[0E0],"parents":[2147483647],"right_children":[-1],"split_conditions":[-1.8209938E-6],"split_indices":[0],"split_type":[0],"sum_hessian":[9.66E3],"tree_param":{"num_deleted":"0","num_feature":"3","num_nodes":"1","size_leaf_vector":"0"}},{"base_weights":[-1.6391234E-5],"categories":[],"categories_nodes":[],"categories_segments":[],"categories_sizes":[],"default_left":[false],"id":86,"left_children":[-1],"loss_changes":[0E0],"parents":[2147483647],"right_children":[-1],"split_conditions":[-1.6391234E-6],"split_indices":[0],"split_type":[0],"sum_hessian":[9.66E3],"tree_param":{"num_deleted":"0","num_feature":"3","num_nodes":"1","size_leaf_vector":"0"}},{"base_weights":[-1.4753078E-5],"categories":[],"categories_nodes":[],"categories_segments":[],"categories_sizes":[],"default_left":[false],"id":87,"left_children":[-1],"loss_changes":[0E0],"parents":[2147483647],"right_children":[-1],"split_conditions":[-1.4753078E-6],"split_indices":[0],"split_type":[0],"sum_hessian":[9.66E3],"tree_param":{"num_deleted":"0","num_feature":"3","num_nodes":"1","size_leaf_vector":"0"}},{"base_weights":[-1.3263091E-5],"categories":[],"categories_nodes":[],"categories_segments":[],"categories_sizes":[],"default_left":[false],"id":88,"left_children":[-1],"loss_changes":[0E0],"parents":[2147483647],"right_children":[-1],"split_conditions":[-1.3263092E-6],"split_indices":[0],"split_type":[0],"sum_hessian":[9.66E3],"tree_param":{"num_deleted":"0","num_feature":"3","num_nodes":"1","size_leaf_vector":"0"}},{"base_weights":[-1.1923446E-5],"categories":[],"categories_nodes":[],"categories_segments":[],"categories_sizes":[],"default_left":[false],"id":89,"left_children":[-1],"loss_changes":[0E0],"parents":[2147483647],"right_children":[-1],"split_conditions":[-1.1923447E-6],"split_indices":[0],"split_type":[0],"sum_hessian":[9.66E3],"tree_param":{"num_deleted":"0","num_feature":"3","num_nodes":"1","size_leaf_vector":"0"}},{"base_weights":[-1.0731378E-5],"categories":[],"categories_nodes":[],"categories_segments":[],"categories_sizes":[],"default_left":[false],"id":90,"left_children":[-1],"loss_changes":[0E0],"parents":[2147483647],"right_children":[-1],"split_conditions":[-1.0731378E-6],"split_indices":[0],"split_type":[0],"sum_hessian":[9.66E3],"tree_param":{"num_deleted":"0","num_feature":"3","num_nodes":"1","size_leaf_vector":"0"}},{"base_weights":[-9.658655E-6],"categories":[],"categories_nodes":[],"categories_segments":[],"categories_sizes":[],"default_left":[false],"id":91,"left_children":[-1],"loss_changes":[0E0],"parents":[2147483647],"right_children":[-1],"split_conditions":[-9.658655E-7],"split_indices":[0],"split_type":[0],"sum_hessian":[9.66E3],"tree_param":{"num_deleted":"0","num_feature":"3","num_nodes":"1","size_leaf_vector":"0"}},{"base_weights":[-8.705079E-6],"categories":[],"categories_nodes":[],"categories_segments":[],"categories_sizes":[],"default_left":[false],"id":92,"left_children":[-1],"loss_changes":[0E0],"parents":[2147483647],"right_children":[-1],"split_conditions":[-8.7050796E-7],"split_indices":[0],"split_type":[0],"sum_hessian":[9.66E3],"tree_param":{"num_deleted":"0","num_feature":"3","num_nodes":"1","size_leaf_vector":"0"}},{"base_weights":[-7.839556E-6],"categories":[],"categories_nodes":[],"categories_segments":[],"categories_sizes":[],"default_left":[false],"id":93,"left_children":[-1],"loss_changes":[0E0],"parents":[2147483647],"right_children":[-1],"split_conditions":[-7.839556E-7],"split_indices":[0],"split_type":[0],"sum_hessian":[9.66E3],"tree_param":{"num_deleted":"0","num_feature":"3","num_nodes":"1","size_leaf_vector":"0"}},{"base_weights":[-7.0648503E-6],"categories":[],"categories_nodes":[],"categories_segments":[],"categories_sizes":[],"default_left":[false],"id":94,"left_children":[-1],"loss_changes":[0E0],"parents":[2147483647],"right_children":[-1],"split_conditions":[-7.06485E-7],"split_indices":[0],"split_type":[0],"sum_hessian":[9.66E3],"tree_param":{"num_deleted":"0","num_feature":"3","num_nodes":"1","size_leaf_vector":"0"}},{"base_weights":[-6.3496686E-6],"categories":[],"categories_nodes":[],"categories_segments":[],"categories_sizes":[],"default_left":[false],"id":95,"left_children":[-1],"loss_changes":[0E0],"parents":[2147483647],"right_children":[-1],"split_conditions":[-6.3496685E-7],"split_indices":[0],"split_type":[0],"sum_hessian":[9.66E3],"tree_param":{"num_deleted":"0","num_feature":"3","num_nodes":"1","size_leaf_vector":"0"}},{"base_weights":[-5.722737E-6],"categories":[],"categories_nodes":[],"categories_segments":[],"categories_sizes":[],"default_left":[false],"id":96,"left_children":[-1],"loss_changes":[0E0],"parents":[2147483647],"right_children":[-1],"split_conditions":[-5.7227373E-7],"split_indices":[0],"split_type":[0],"sum_hessian":[9.66E3],"tree_param":{"num_deleted":"0","num_feature":"3","num_nodes":"1","size_leaf_vector":"0"}},{"base_weights":[-5.155527E-6],"categories":[],"categories_nodes":[],"categories_segments":[],"categories_sizes":[],"default_left":[false],"id":97,"left_children":[-1],"loss_changes":[0E0],"parents":[2147483647],"right_children":[-1],"split_conditions":[-5.155527E-7],"split_indices":[0],"split_type":[0],"sum_hessian":[9.66E3],"tree_param":{"num_deleted":"0","num_feature":"3","num_nodes":"1","size_leaf_vector":"0"}},{"base_weights":[-4.6480395E-6],"categories":[],"categories_nodes":[],"categories_segments":[],"categories_sizes":[],"default_left":[false],"id":98,"left_children":[-1],"loss_changes":[0E0],"parents":[2147483647],"right_children":[-1],"split_conditions":[-4.6480395E-7],"split_indices":[0],"split_type":[0],"sum_hessian":[9.66E3],"tree_param":{"num_deleted":"0","num_feature":"3","num_nodes":"1","size_leaf_vector":"0"}},{"base_weights":[-4.1712515E-6],"categories":[],"categories_nodes":[],"categories_segments":[],"categories_sizes":[],"default_left":[false],"id":99,"left_children":[-1],"loss_changes":[0E0],"parents":[2147483647],"right_children":[-1],"split_conditions":[-4.1712516E-7],"split_indices":[0],"split_type":[0],"sum_hessian":[9.66E3],"tree_param":{"num_deleted":"0","num_feature":"3","num_nodes":"1","size_leaf_vector":"0"}},{"base_weights":[-3.7539883E-6],"categories":[],"categories_nodes":[],"categories_segments":[],"categories_sizes":[],"default_left":[false],"id":100,"left_children":[-1],"loss_changes":[0E0],"parents":[2147483647],"right_children":[-1],"split_conditions":[-3.7539883E-7],"split_indices":[0],"split_type":[0],"sum_hessian":[9.66E3],"tree_param":{"num_deleted":"0","num_feature":"3","num_nodes":"1","size_leaf_vector":"0"}},{"base_weights":[-3.367721E-6],"categories":[],"categories_nodes":[],"categories_segments":[],"categories_sizes":[],"default_left":[false],"id":101,"left_children":[-1],"loss_changes":[0E0],"parents":[2147483647],"right_children":[-1],"split_conditions":[-3.367721E-7],"split_indices":[0],"split_type":[0],"sum_hessian":[9.66E3],"tree_param":{"num_deleted":"0","num_feature":"3","num_nodes":"1","size_leaf_vector":"0"}},{"base_weights":[-3.0387077E-6],"categories":[],"categories_nodes":[],"categories_segments":[],"categories_sizes":[],"default_left":[false],"id":102,"left_children":[-1],"loss_changes":[0E0],"parents":[2147483647],"right_children":[-1],"split_conditions":[-3.038708E-7],"split_indices":[0],"split_type":[0],"sum_hessian":[9.66E3],"tree_param":{"num_deleted":"0","num_feature":"3","num_nodes":"1","size_leaf_vector":"0"}},{"base_weights":[-2.7408882E-6],"categories":[],"categories_nodes":[],"categories_segments":[],"categories_sizes":[],"default_left":[false],"id":103,"left_children":[-1],"loss_changes":[0E0],"parents":[2147483647],"right_children":[-1],"split_conditions":[-2.7408882E-7],"split_indices":[0],"split_type":[0],"sum_hessian":[9.66E3],"tree_param":{"num_deleted":"0","num_feature":"3","num_nodes":"1","size_leaf_vector":"0"}},{"base_weights":[-2.4713008E-6],"categories":[],"categories_nodes":[],"categories_segments":[],"categories_sizes":[],"default_left":[false],"id":104,"left_children":[-1],"loss_changes":[0E0],"parents":[2147483647],"right_children":[-1],"split_conditions":[-2.471301E-7],"split_indices":[0],"split_type":[0],"sum_hessian":[9.66E3],"tree_param":{"num_deleted":"0","num_feature":"3","num_nodes":"1","size_leaf_vector":"0"}},{"base_weights":[-2.2329068E-6],"categories":[],"categories_nodes":[],"categories_segments":[],"categories_sizes":[],"default_left":[false],"id":105,"left_children":[-1],"loss_changes":[0E0],"parents":[2147483647],"right_children":[-1],"split_conditions":[-2.2329068E-7],"split_indices":[0],"split_type":[0],"sum_hessian":[9.66E3],"tree_param":{"num_deleted":"0","num_feature":"3","num_nodes":"1","size_leaf_vector":"0"}},{"base_weights":[-2.0236334E-6],"categories":[],"categories_nodes":[],"categories_segments":[],"categories_sizes":[],"default_left":[false],"id":106,"left_children":[-1],"loss_changes":[0E0],"parents":[2147483647],"right_children":[-1],"split_conditions":[-2.0236335E-7],"split_indices":[0],"split_type":[0],"sum_hessian":[9.66E3],"tree_param":{"num_deleted":"0","num_feature":"3","num_nodes":"1","size_leaf_vector":"0"}},{"base_weights":[-1.8160383E-6],"categories":[],"categories_nodes":[],"categories_segments":[],"categories_sizes":[],"default_left":[false],"id":107,"left_children":[-1],"loss_changes":[0E0],"parents":[2147483647],"right_children":[-1],"split_conditions":[-1.8160384E-7],"split_indices":[0],"split_type":[0],"sum_hessian":[9.66E3],"tree_param":{"num_deleted":"0","num_feature":"3","num_nodes":"1","size_leaf_vector":"0"}},{"base_weights":[-1.6368728E-6],"categories":[],"categories_nodes":[],"categories_segments":[],"categories_sizes":[],"default_left":[false],"id":108,"left_children":[-1],"loss_changes":[0E0],"parents":[2147483647],"right_children":[-1],"split_conditions":[-1.6368728E-7],"split_indices":[0],"split_type":[0],"sum_hessian":[9.66E3],"tree_param":{"num_deleted":"0","num_feature":"3","num_nodes":"1","size_leaf_vector":"0"}},{"base_weights":[-1.4870251E-6],"categories":[],"categories_nodes":[],"categories_segments":[],"categories_sizes":[],"default_left":[false],"id":109,"left_children":[-1],"loss_changes":[0E0],"parents":[2147483647],"right_children":[-1],"split_conditions":[-1.4870251E-7],"split_indices":[0],"split_type":[0],"sum_hessian":[9.66E3],"tree_param":{"num_deleted":"0","num_feature":"3","num_nodes":"1","size_leaf_vector":"0"}},{"base_weights":[-1.3392505E-6],"categories":[],"categories_nodes":[],"categories_segments":[],"categories_sizes":[],"default_left":[false],"id":110,"left_children":[-1],"loss_changes":[0E0],"parents":[2147483647],"right_children":[-1],"split_conditions":[-1.3392506E-7],"split_indices":[0],"split_type":[0],"sum_hessian":[9.66E3],"tree_param":{"num_deleted":"0","num_feature":"3","num_nodes":"1","size_leaf_vector":"0"}},{"base_weights":[-1.220103E-6],"categories":[],"categories_nodes":[],"categories_segments":[],"categories_sizes":[],"default_left":[false],"id":111,"left_children":[-1],"loss_changes":[0E0],"parents":[2147483647],"right_children":[-1],"split_conditions":[-1.2201029E-7],"split_indices":[0],"split_type":[0],"sum_hessian":[9.66E3],"tree_param":{"num_deleted":"0","num_feature":"3","num_nodes":"1","size_leaf_vector":"0"}},{"base_weights":[-1.1008566E-6],"categories":[],"categories_nodes":[],"categories_segments":[],"categories_sizes":[],"default_left":[false],"id":112,"left_children":[-1],"loss_changes":[0E0],"parents":[2147483647],"right_children":[-1],"split_conditions":[-1.1008566E-7],"split_indices":[0],"split_type":[0],"sum_hessian":[9.66E3],"tree_param":{"num_deleted":"0","num_feature":"3","num_nodes":"1","size_leaf_vector":"0"}},{"base_weights":[-9.81709E-7],"categories":[],"categories_nodes":[],"categories_segments":[],"categories_sizes":[],"default_left":[false],"id":113,"left_children":[-1],"loss_changes":[0E0],"parents":[2147483647],"right_children":[-1],"split_conditions":[-9.817091E-8],"split_indices":[0],"split_type":[0],"sum_hessian":[9.66E3],"tree_param":{"num_deleted":"0","num_feature":"3","num_nodes":"1","size_leaf_vector":"0"}},{"base_weights":[-8.9108977E-7],"categories":[],"categories_nodes":[],"categories_segments":[],"categories_sizes":[],"default_left":[false],"id":114,"left_children":[-1],"loss_changes":[0E0],"parents":[2147483647],"right_children":[-1],"split_conditions":[-8.910898E-8],"split_indices":[0],"split_type":[0],"sum_hessian":[9.66E3],"tree_param":{"num_deleted":"0","num_feature":"3","num_nodes":"1","size_leaf_vector":"0"}},{"base_weights":[-8.0254347E-7],"categories":[],"categories_nodes":[],"categories_segments":[],"categories_sizes":[],"default_left":[false],"id":115,"left_children":[-1],"loss_changes":[0E0],"parents":[2147483647],"right_children":[-1],"split_conditions":[-8.0254345E-8],"split_indices":[0],"split_type":[0],"sum_hessian":[9.66E3],"tree_param":{"num_deleted":"0","num_feature":"3","num_nodes":"1","size_leaf_vector":"0"}},{"base_weights":[-7.144907E-7],"categories":[],"categories_nodes":[],"categories_segments":[],"categories_sizes":[],"default_left":[false],"id":116,"left_children":[-1],"loss_changes":[0E0],"parents":[2147483647],"right_children":[-1],"split_conditions":[-7.144907E-8],"split_indices":[0],"split_type":[0],"sum_hessian":[9.66E3],"tree_param":{"num_deleted":"0","num_feature":"3","num_nodes":"1","size_leaf_vector":"0"}},{"base_weights":[-6.547688E-7],"categories":[],"categories_nodes":[],"categories_segments":[],"categories_sizes":[],"default_left":[false],"id":117,"left_children":[-1],"loss_changes":[0E0],"parents":[2147483647],"right_children":[-1],"split_conditions":[-6.547688E-8],"split_indices":[0],"split_type":[0],"sum_hessian":[9.66E3],"tree_param":{"num_deleted":"0","num_feature":"3","num_nodes":"1","size_leaf_vector":"0"}},{"base_weights":[-5.953431E-7],"categories":[],"categories_nodes":[],"categories_segments":[],"categories_sizes":[],"default_left":[false],"id":118,"left_children":[-1],"loss_changes":[0E0],"parents":[2147483647],"right_children":[-1],"split_conditions":[-5.953431E-8],"split_indices":[0],"split_type":[0],"sum_hessian":[9.66E3],"tree_param":{"num_deleted":"0","num_feature":"3","num_nodes":"1","size_leaf_vector":"0"}},{"base_weights":[-5.353251E-7],"categories":[],"categories_nodes":[],"categories_segments":[],"categories_sizes":[],"default_left":[false],"id":119,"left_children":[-1],"loss_changes":[0E0],"parents":[2147483647],"right_children":[-1],"split_conditions":[-5.3532514E-8],"split_indices":[0],"split_type":[0],"sum_hessian":[9.66E3],"tree_param":{"num_deleted":"0","num_feature":"3","num_nodes":"1","size_leaf_vector":"0"}},{"base_weights":[-4.759981E-7],"categories":[],"categories_nodes":[],"categories_segments":[],"categories_sizes":[],"default_left":[false],"id":120,"left_children":[-1],"loss_changes":[0E0],"parents":[2147483647],"right_children":[-1],"split_conditions":[-4.759981E-8],"split_indices":[0],"split_type":[0],"sum_hessian":[9.66E3],"tree_param":{"num_deleted":"0","num_feature":"3","num_nodes":"1","size_leaf_vector":"0"}},{"base_weights":[-4.1647365E-7],"categories":[],"categories_nodes":[],"categories_segments":[],"categories_sizes":[],"default_left":[false],"id":121,"left_children":[-1],"loss_changes":[0E0],"parents":[2147483647],"right_children":[-1],"split_conditions":[-4.1647365E-8],"split_indices":[0],"split_type":[0],"sum_hessian":[9.66E3],"tree_param":{"num_deleted":"0","num_feature":"3","num_nodes":"1","size_leaf_vector":"0"}},{"base_weights":[-3.8567492E-7],"categories":[],"categories_nodes":[],"categories_segments":[],"categories_sizes":[],"default_left":[false],"id":122,"left_children":[-1],"loss_changes":[0E0],"parents":[2147483647],"right_children":[-1],"split_conditions":[-3.8567492E-8],"split_indices":[0],"split_type":[0],"sum_hessian":[9.66E3],"tree_param":{"num_deleted":"0","num_feature":"3","num_nodes":"1","size_leaf_vector":"0"}},{"base_weights":[-3.5487622E-7],"categories":[],"categories_nodes":[],"categories_segments":[],"categories_sizes":[],"default_left":[false],"id":123,"left_children":[-1],"loss_changes":[0E0],"parents":[2147483647],"right_children":[-1],"split_conditions":[-3.5487624E-8],"split_indices":[0],"split_type":[0],"sum_hessian":[9.66E3],"tree_param":{"num_deleted":"0","num_feature":"3","num_nodes":"1","size_leaf_vector":"0"}},{"base_weights":[-3.2378136E-7],"categories":[],"categories_nodes":[],"categories_segments":[],"categories_sizes":[],"default_left":[false],"id":124,"left_children":[-1],"loss_changes":[0E0],"parents":[2147483647],"right_children":[-1],"split_conditions":[-3.2378136E-8],"split_indices":[0],"split_type":[0],"sum_hessian":[9.66E3],"tree_param":{"num_deleted":"0","num_feature":"3","num_nodes":"1","size_leaf_vector":"0"}},{"base_weights":[-2.9298266E-7],"categories":[],"categories_nodes":[],"categories_segments":[],"categories_sizes":[],"default_left":[false],"id":125,"left_children":[-1],"loss_changes":[0E0],"parents":[2147483647],"right_children":[-1],"split_conditions":[-2.9298267E-8],"split_indices":[0],"split_type":[0],"sum_hessian":[9.66E3],"tree_param":{"num_deleted":"0","num_feature":"3","num_nodes":"1","size_leaf_vector":"0"}},{"base_weights":[-2.6455308E-7],"categories":[],"categories_nodes":[],"categories_segments":[],"categories_sizes":[],"default_left":[false],"id":126,"left_children":[-1],"loss_changes":[0E0],"parents":[2147483647],"right_children":[-1],"split_conditions":[-2.6455309E-8],"split_indices":[0],"split_type":[0],"sum_hessian":[9.66E3],"tree_param":{"num_deleted":"0","num_feature":"3","num_nodes":"1","size_leaf_vector":"0"}},{"base_weights":[-2.355312E-7],"categories":[],"categories_nodes":[],"categories_segments":[],"categories_sizes":[],"default_left":[false],"id":127,"left_children":[-1],"loss_changes":[0E0],"parents":[2147483647],"right_children":[-1],"split_conditions":[-2.355312E-8],"split_indices":[0],"split_type":[0],"sum_hessian":[9.66E3],"tree_param":{"num_deleted":"0","num_feature":"3","num_nodes":"1","size_leaf_vector":"0"}},{"base_weights":[-2.0650933E-7],"categories":[],"categories_nodes":[],"categories_segments":[],"categories_sizes":[],"default_left":[false],"id":128,"left_children":[-1],"loss_changes":[0E0],"parents":[2147483647],"right_children":[-1],"split_conditions":[-2.0650933E-8],"split_indices":[0],"split_type":[0],"sum_hessian":[9.66E3],"tree_param":{"num_deleted":"0","num_feature":"3","num_nodes":"1","size_leaf_vector":"0"}},{"base_weights":[-1.7798104E-7],"categories":[],"categories_nodes":[],"categories_segments":[],"categories_sizes":[],"default_left":[false],"id":129,"left_children":[-1],"loss_changes":[0E0],"parents":[2147483647],"right_children":[-1],"split_conditions":[-1.7798104E-8],"split_indices":[0],"split_type":[0],"sum_hessian":[9.66E3],"tree_param":{"num_deleted":"0","num_feature":"3","num_nodes":"1","size_leaf_vector":"0"}},{"base_weights":[-1.4915659E-7],"categories":[],"categories_nodes":[],"categories_segments":[],"categories_sizes":[],"default_left":[false],"id":130,"left_children":[-1],"loss_changes":[0E0],"parents":[2147483647],"right_children":[-1],"split_conditions":[-1.491566E-8],"split_indices":[0],"split_type":[0],"sum_hessian":[9.66E3],"tree_param":{"num_deleted":"0","num_feature":"3","num_nodes":"1","size_leaf_vector":"0"}},{"base_weights":[-1.206283E-7],"categories":[],"categories_nodes":[],"categories_segments":[],"categories_sizes":[],"default_left":[false],"id":131,"left_children":[-1],"loss_changes":[0E0],"parents":[2147483647],"right_children":[-1],"split_conditions":[-1.206283E-8],"split_indices":[0],"split_type":[0],"sum_hessian":[9.66E3],"tree_param":{"num_deleted":"0","num_feature":"3","num_nodes":"1","size_leaf_vector":"0"}},{"base_weights":[-1.206283E-7],"categories":[],"categories_nodes":[],"categories_segments":[],"categories_sizes":[],"default_left":[false],"id":132,"left_children":[-1],"loss_changes":[0E0],"parents":[2147483647],"right_children":[-1],"split_conditions":[-1.206283E-8],"split_indices":[0],"split_type":[0],"sum_hessian":[9.66E3],"tree_param":{"num_deleted":"0","num_feature":"3","num_nodes":"1","size_leaf_vector":"0"}},{"base_weights":[-1.206283E-7],"categories":[],"categories_nodes":[],"categories_segments":[],"categories_sizes":[],"default_left":[false],"id":133,"left_children":[-1],"loss_changes":[0E0],"parents":[2147483647],"right_children":[-1],"split_conditions":[-1.206283E-8],"split_indices":[0],"split_type":[0],"sum_hessian":[9.66E3],"tree_param":{"num_deleted":"0","num_feature":"3","num_nodes":"1","size_leaf_vector":"0"}},{"base_weights":[-1.206283E-7],"categories":[],"categories_nodes":[],"categories_segments":[],"categories_sizes":[],"default_left":[false],"id":134,"left_children":[-1],"loss_changes":[0E0],"parents":[2147483647],"right_children":[-1],"split_conditions":[-1.206283E-8],"split_indices":[0],"split_type":[0],"sum_hessian":[9.66E3],"tree_param":{"num_deleted":"0","num_feature":"3","num_nodes":"1","size_leaf_vector":"0"}},{"base_weights":[-1.206283E-7],"categories":[],"categories_nodes":[],"categories_segments":[],"categories_sizes":[],"default_left":[false],"id":135,"left_children":[-1],"loss_changes":[0E0],"parents":[2147483647],"right_children":[-1],"split_conditions":[-1.206283E-8],"split_indices":[0],"split_type":[0],"sum_hessian":[9.66E3],"tree_param":{"num_deleted":"0","num_feature":"3","num_nodes":"1","size_leaf_vector":"0"}},{"base_weights":[-1.206283E-7],"categories":[],"categories_nodes":[],"categories_segments":[],"categories_sizes":[],"default_left":[false],"id":136,"left_children":[-1],"loss_changes":[0E0],"parents":[2147483647],"right_children":[-1],"split_conditions":[-1.206283E-8],"split_indices":[0],"split_type":[0],"sum_hessian":[9.66E3],"tree_param":{"num_deleted":"0","num_feature":"3","num_nodes":"1","size_leaf_vector":"0"}},{"base_weights":[-1.206283E-7],"categories":[],"categories_nodes":[],"categories_segments":[],"categories_sizes":[],"default_left":[false],"id":137,"left_children":[-1],"loss_changes":[0E0],"parents":[2147483647],"right_children":[-1],"split_conditions":[-1.206283E-8],"split_indices":[0],"split_type":[0],"sum_hessian":[9.66E3],"tree_param":{"num_deleted":"0","num_feature":"3","num_nodes":"1","size_leaf_vector":"0"}},{"base_weights":[-1.206283E-7],"categories":[],"categories_nodes":[],"categories_segments":[],"categories_sizes":[],"default_left":[false],"id":138,"left_children":[-1],"loss_changes":[0E0],"parents":[2147483647],"right_children":[-1],"split_conditions":[-1.206283E-8],"split_indices":[0],"split_type":[0],"sum_hessian":[9.66E3],"tree_param":{"num_deleted":"0","num_feature":"3","num_nodes":"1","size_leaf_vector":"0"}},{"base_weights":[-1.206283E-7],"categories":[],"categories_nodes":[],"categories_segments":[],"categories_sizes":[],"default_left":[false],"id":139,"left_children":[-1],"loss_changes":[0E0],"parents":[2147483647],"right_children":[-1],"split_conditions":[-1.206283E-8],"split_indices":[0],"split_type":[0],"sum_hessian":[9.66E3],"tree_param":{"num_deleted":"0","num_feature":"3","num_nodes":"1","size_leaf_vector":"0"}},{"base_weights":[-1.206283E-7],"categories":[],"categories_nodes":[],"categories_segments":[],"categories_sizes":[],"default_left":[false],"id":140,"left_children":[-1],"loss_changes":[0E0],"parents":[2147483647],"right_children":[-1],"split_conditions":[-1.206283E-8],"split_indices":[0],"split_type":[0],"sum_hessian":[9.66E3],"tree_param":{"num_deleted":"0","num_feature":"3","num_nodes":"1","size_leaf_vector":"0"}},{"base_weights":[-1.206283E-7],"categories":[],"categories_nodes":[],"categories_segments":[],"categories_sizes":[],"default_left":[false],"id":141,"left_children":[-1],"loss_changes":[0E0],"parents":[2147483647],"right_children":[-1],"split_conditions":[-1.206283E-8],"split_indices":[0],"split_type":[0],"sum_hessian":[9.66E3],"tree_param":{"num_deleted":"0","num_feature":"3","num_nodes":"1","size_leaf_vector":"0"}},{"base_weights":[-1.206283E-7],"categories":[],"categories_nodes":[],"categories_segments":[],"categories_sizes":[],"default_left":[false],"id":142,"left_children":[-1],"loss_changes":[0E0],"parents":[2147483647],"right_children":[-1],"split_conditions":[-1.206283E-8],"split_indices":[0],"split_type":[0],"sum_hessian":[9.66E3],"tree_param":{"num_deleted":"0","num_feature":"3","num_nodes":"1","size_leaf_vector":"0"}},{"base_weights":[-1.206283E-7],"categories":[],"categories_nodes":[],"categories_segments":[],"categories_sizes":[],"default_left":[false],"id":143,"left_children":[-1],"loss_changes":[0E0],"parents":[2147483647],"right_children":[-1],"split_conditions":[-1.206283E-8],"split_indices":[0],"split_type":[0],"sum_hessian":[9.66E3],"tree_param":{"num_deleted":"0","num_feature":"3","num_nodes":"1","size_leaf_vector":"0"}},{"base_weights":[-1.206283E-7],"categories":[],"categories_nodes":[],"categories_segments":[],"categories_sizes":[],"default_left":[false],"id":144,"left_children":[-1],"loss_changes":[0E0],"parents":[2147483647],"right_children":[-1],"split_conditions":[-1.206283E-8],"split_indices":[0],"split_type":[0],"sum_hessian":[9.66E3],"tree_param":{"num_deleted":"0","num_feature":"3","num_nodes":"1","size_leaf_vector":"0"}},{"base_weights":[-1.206283E-7],"categories":[],"categories_nodes":[],"categories_segments":[],"categories_sizes":[],"default_left":[false],"id":145,"left_children":[-1],"loss_changes":[0E0],"parents":[2147483647],"right_children":[-1],"split_conditions":[-1.206283E-8],"split_indices":[0],"split_type":[0],"sum_hessian":[9.66E3],"tree_param":{"num_deleted":"0","num_feature":"3","num_nodes":"1","size_leaf_vector":"0"}},{"base_weights":[-1.206283E-7],"categories":[],"categories_nodes":[],"categories_segments":[],"categories_sizes":[],"default_left":[false],"id":146,"left_children":[-1],"loss_changes":[0E0],"parents":[2147483647],"right_children":[-1],"split_conditions":[-1.206283E-8],"split_indices":[0],"split_type":[0],"sum_hessian":[9.66E3],"tree_param":{"num_deleted":"0","num_feature":"3","num_nodes":"1","size_leaf_vector":"0"}},{"base_weights":[-1.206283E-7],"categories":[],"categories_nodes":[],"categories_segments":[],"categories_sizes":[],"default_left":[false],"id":147,"left_children":[-1],"loss_changes":[0E0],"parents":[2147483647],"right_children":[-1],"split_conditions":[-1.206283E-8],"split_indices":[0],"split_type":[0],"sum_hessian":[9.66E3],"tree_param":{"num_deleted":"0","num_feature":"3","num_nodes":"1","size_leaf_vector":"0"}},{"base_weights":[-1.206283E-7],"categories":[],"categories_nodes":[],"categories_segments":[],"categories_sizes":[],"default_left":[false],"id":148,"left_children":[-1],"loss_changes":[0E0],"parents":[2147483647],"right_children":[-1],"split_conditions":[-1.206283E-8],"split_indices":[0],"split_type":[0],"sum_hessian":[9.66E3],"tree_param":{"num_deleted":"0","num_feature":"3","num_nodes":"1","size_leaf_vector":"0"}},{"base_weights":[-1.206283E-7],"categories":[],"categories_nodes":[],"categories_segments":[],"categories_sizes":[],"default_left":[false],"id":149,"left_children":[-1],"loss_changes":[0E0],"parents":[2147483647],"right_children":[-1],"split_conditions":[-1.206283E-8],"split_indices":[0],"split_type":[0],"sum_hessian":[9.66E3],"tree_param":{"num_deleted":"0","num_feature":"3","num_nodes":"1","size_leaf_vector":"0"}},{"base_weights":[-1.206283E-7],"categories":[],"categories_nodes":[],"categories_segments":[],"categories_sizes":[],"default_left":[false],"id":150,"left_children":[-1],"loss_changes":[0E0],"parents":[2147483647],"right_children":[-1],"split_conditions":[-1.206283E-8],"split_indices":[0],"split_type":[0],"sum_hessian":[9.66E3],"tree_param":{"num_deleted":"0","num_feature":"3","num_nodes":"1","size_leaf_vector":"0"}},{"base_weights":[-1.206283E-7],"categories":[],"categories_nodes":[],"categories_segments":[],"categories_sizes":[],"default_left":[false],"id":151,"left_children":[-1],"loss_changes":[0E0],"parents":[2147483647],"right_children":[-1],"split_conditions":[-1.206283E-8],"split_indices":[0],"split_type":[0],"sum_hessian":[9.66E3],"tree_param":{"num_deleted":"0","num_feature":"3","num_nodes":"1","size_leaf_vector":"0"}},{"base_weights":[-1.206283E-7],"categories":[],"categories_nodes":[],"categories_segments":[],"categories_sizes":[],"default_left":[false],"id":152,"left_children":[-1],"loss_changes":[0E0],"parents":[2147483647],"right_children":[-1],"split_conditions":[-1.206283E-8],"split_indices":[0],"split_type":[0],"sum_hessian":[9.66E3],"tree_param":{"num_deleted":"0","num_feature":"3","num_nodes":"1","size_leaf_vector":"0"}},{"base_weights":[-1.206283E-7],"categories":[],"categories_nodes":[],"categories_segments":[],"categories_sizes":[],"default_left":[false],"id":153,"left_children":[-1],"loss_changes":[0E0],"parents":[2147483647],"right_children":[-1],"split_conditions":[-1.206283E-8],"split_indices":[0],"split_type":[0],"sum_hessian":[9.66E3],"tree_param":{"num_deleted":"0","num_feature":"3","num_nodes":"1","size_leaf_vector":"0"}},{"base_weights":[-1.206283E-7],"categories":[],"categories_nodes":[],"categories_segments":[],"categories_sizes":[],"default_left":[false],"id":154,"left_children":[-1],"loss_changes":[0E0],"parents":[2147483647],"right_children":[-1],"split_conditions":[-1.206283E-8],"split_indices":[0],"split_type":[0],"sum_hessian":[9.66E3],"tree_param":{"num_deleted":"0","num_feature":"3","num_nodes":"1","size_leaf_vector":"0"}},{"base_weights":[-1.206283E-7],"categories":[],"categories_nodes":[],"categories_segments":[],"categories_sizes":[],"default_left":[false],"id":155,"left_children":[-1],"loss_changes":[0E0],"parents":[2147483647],"right_children":[-1],"split_conditions":[-1.206283E-8],"split_indices":[0],"split_type":[0],"sum_hessian":[9.66E3],"tree_param":{"num_deleted":"0","num_feature":"3","num_nodes":"1","size_leaf_vector":"0"}},{"base_weights":[-1.206283E-7],"categories":[],"categories_nodes":[],"categories_segments":[],"categories_sizes":[],"default_left":[false],"id":156,"left_children":[-1],"loss_changes":[0E0],"parents":[2147483647],"right_children":[-1],"split_conditions":[-1.206283E-8],"split_indices":[0],"split_type":[0],"sum_hessian":[9.66E3],"tree_param":{"num_deleted":"0","num_feature":"3","num_nodes":"1","size_leaf_vector":"0"}},{"base_weights":[-1.206283E-7],"categories":[],"categories_nodes":[],"categories_segments":[],"categories_sizes":[],"default_left":[false],"id":157,"left_children":[-1],"loss_changes":[0E0],"parents":[2147483647],"right_children":[-1],"split_conditions":[-1.206283E-8],"split_indices":[0],"split_type":[0],"sum_hessian":[9.66E3],"tree_param":{"num_deleted":"0","num_feature":"3","num_nodes":"1","size_leaf_vector":"0"}},{"base_weights":[-1.206283E-7],"categories":[],"categories_nodes":[],"categories_segments":[],"categories_sizes":[],"default_left":[false],"id":158,"left_children":[-1],"loss_changes":[0E0],"parents":[2147483647],"right_children":[-1],"split_conditions":[-1.206283E-8],"split_indices":[0],"split_type":[0],"sum_hessian":[9.66E3],"tree_param":{"num_deleted":"0","num_feature":"3","num_nodes":"1","size_leaf_vector":"0"}},{"base_weights":[-1.206283E-7],"categories":[],"categories_nodes":[],"categories_segments":[],"categories_sizes":[],"default_left":[false],"id":159,"left_children":[-1],"loss_changes":[0E0],"parents":[2147483647],"right_children":[-1],"split_conditions":[-1.206283E-8],"split_indices":[0],"split_type":[0],"sum_hessian":[9.66E3],"tree_param":{"num_deleted":"0","num_feature":"3","num_nodes":"1","size_leaf_vector":"0"}},{"base_weights":[-1.206283E-7],"categories":[],